{"learner":{"attributes":{"best_iteration":"126","best_score":"0.8787627239006213"},"feature_names":["position","position_inv","is_position_1","brand_ctr","brand_ev","brand_pos1_ctr","brand_credit_ctr","brand_credit_lift","credit_score_ord","annual_income_ord","annual_income_missing","credit_line_ord","credit_line_missing","property_value_ord","mortgage_ord","military_missing","is_military","traffic_ctr","traffic_ev","loan_purpose_Home Improvements","loan_purpose_Investment Opportunities","loan_purpose_Other","loan_purpose_Retirement Income","device_mobile","device_tablet","property_type_Multi-Family Home","property_type_Single-Family Home","property_type_Townhome / Condominium","property_use_Rental Property","property_use_Secondary/Vacation Home"],"feature_types":["int","float","int","float","float","float","float","float","float","float","int","float","int","float","float","int","int","float","float","int","int","int","int","int","int","int","int","int","int","int"],"gradient_booster":{"model":{"gbtree_model_param":{"num_parallel_tree":"1","num_trees":"327"},"iteration_indptr":[0,1,2,3,4,5,6,7,8,9,10,11,12,13,14,15,16,17,18,19,20,21,22,23,24,25,26,27,28,29,30,31,32,33,34,35,36,37,38,39,40,41,42,43,44,45,46,47,48,49,50,51,52,53,54,55,56,57,58,59,60,61,62,63,64,65,66,67,68,69,70,71,72,73,74,75,76,77,78,79,80,81,82,83,84,85,86,87,88,89,90,91,92,93,94,95,96,97,98,99,100,101,102,103,104,105,106,107,108,109,110,111,112,113,114,115,116,117,118,119,120,121,122,123,124,125,126,127,128,129,130,131,132,133,134,135,136,137,138,139,140,141,142,143,144,145,146,147,148,149,150,151,152,153,154,155,156,157,158,159,160,161,162,163,164,165,166,167,168,169,170,171,172,173,174,175,176,177,178,179,180,181,182,183,184,185,186,187,188,189,190,191,192,193,194,195,196,197,198,199,200,201,202,203,204,205,206,207,208,209,210,211,212,213,214,215,216,217,218,219,220,221,222,223,224,225,226,227,228,229,230,231,232,233,234,235,236,237,238,239,240,241,242,243,244,245,246,247,248,249,250,251,252,253,254,255,256,257,258,259,260,261,262,263,264,265,266,267,268,269,270,271,272,273,274,275,276,277,278,279,280,281,282,283,284,285,286,287,288,289,290,291,292,293,294,295,296,297,298,299,300,301,302,303,304,305,306,307,308,309,310,311,312,313,314,315,316,317,318,319,320,321,322,323,324,325,326,327],"tree_info":[0,0,0,0,0,0,0,0,0,0,0,0,0,0,0,0,0,0,0,0,0,0,0,0,0,0,0,0,0,0,0,0,0,0,0,0,0,0,0,0,0,0,0,0,0,0,0,0,0,0,0,0,0,0,0,0,0,0,0,0,0,0,0,0,0,0,0,0,0,0,0,0,0,0,0,0,0,0,0,0,0,0,0,0,0,0,0,0,0,0,0,0,0,0,0,0,0,0,0,0,0,0,0,0,0,0,0,0,0,0,0,0,0,0,0,0,0,0,0,0,0,0,0,0,0,0,0,0,0,0,0,0,0,0,0,0,0,0,0,0,0,0,0,0,0,0,0,0,0,0,0,0,0,0,0,0,0,0,0,0,0,0,0,0,0,0,0,0,0,0,0,0,0,0,0,0,0,0,0,0,0,0,0,0,0,0,0,0,0,0,0,0,0,0,0,0,0,0,0,0,0,0,0,0,0,0,0,0,0,0,0,0,0,0,0,0,0,0,0,0,0,0,0,0,0,0,0,0,0,0,0,0,0,0,0,0,0,0,0,0,0,0,0,0,0,0,0,0,0,0,0,0,0,0,0,0,0,0,0,0,0,0,0,0,0,0,0,0,0,0,0,0,0,0,0,0,0,0,0,0,0,0,0,0,0,0,0,0,0,0,0,0,0,0,0,0,0,0,0,0,0,0,0,0,0,0,0,0,0,0,0,0,0,0,0,0,0,0,0,0,0,0,0,0,0,0,0],"trees":[{"base_weights":[-4.3457904E-9,6.8210685E-1,-4.722458E-1,7.074921E-1,3.9929494E-1,-5.634736E-1,-2.61827E-1,5.210124E-1,7.310159E-1,1.1320755E-1,4.4154766E-1,-6.5481967E-1,-4.7616786E-1,-3.2606858E-1,8.749787E-3,4.1018564E-1,6.034069E-1,5.4481393E-1,7.3878676E-1,3.8181818E-1,-1.6981132E-1,4.2499483E-1,7.9188585E-1,-6.0873497E-1,-7.320737E-1,-4.5728144E-1,-6.8563163E-1,-5.7897264E-1,-2.8224248E-1,6.7143285E-1,-3.6415101E-3,-3.316583E-1,4.346076E-1,5.6888556E-1,8.91427E-1,6.9261557E-1,4.0044215E-1,7.674882E-1,7.019545E-1,4.3396226E-1,-5E-4,-2.820513E-1,1.25E-1,5.333604E-1,3.952466E-1,8.2396126E-1,2.1598682E-4,-4.847649E-1,-6.359002E-1,-6.4587474E-1,-7.7750343E-1,-2.4911337E-1,-4.6556935E-1,-7.048692E-1,6.5762654E-2,-1.23155445E-1,-6.2650186E-1,-3.1394538E-1,-5.0845202E-2,2.1598682E-4,7.1810335E-1,2.6443276E-1,-3.6696576E-2,-5.069814E-4,2.519611E-4,6.344432E-4,3.6770373E-4,6.0053635E-4,4.0497063E-4,9.292372E-4,4.7673113E-4,8.741214E-4,6.206162E-4,4.5945204E-4,-1.6953684E-4,7.9720543E-4,7.3877175E-4,6.2468305E-4,7.293445E-4,-0E0,4.509804E-4,-2.2222224E-4,-6E-4,3.3333336E-4,-1.1111112E-4,-7.611253E-5,5.5486767E-4,4.6706243E-4,3.1203296E-4,8.6743786E-4,2.9904663E-4,-5.9284014E-4,-2.628557E-4,-7.129005E-4,-6.0282217E-4,-5.8622495E-4,-7.4966345E-4,-7.874384E-4,-2.9808225E-4,-3.3251388E-4,4.8123853E-4,-3.8869522E-4,-4.808472E-4,-7.2130444E-4,-2.0630623E-4,3.8009378E-4,-4.163083E-4,1.2729733E-4,-3.8628606E-4,-6.834328E-4,-2.7721905E-4,-2.1561132E-4,-3.9718175E-4,-3.2302097E-4,1.1486999E-4,7.984849E-4,2.519611E-4,-7.23158E-4,3.439738E-4,-2.2913368E-5,-6.6297426E-4],"categories":[],"categories_nodes":[],"categories_segments":[],"categories_sizes":[],"default_left":[0,0,0,0,0,0,0,0,0,0,0,0,0,0,0,0,0,0,0,0,0,0,0,0,0,0,0,0,0,0,0,0,0,0,0,0,0,0,0,0,0,0,0,0,0,0,0,0,0,0,0,0,0,0,0,0,0,0,0,0,0,0,0,0,0,0,0,0,0,0,0,0,0,0,0,0,0,0,0,0,0,0,0,0,0,0,0,0,0,0,0,0,0,0,0,0,0,0,0,0,0,0,0,0,0,0,0,0,0,0,0,0,0,0,0,0,0,0,0,0,0],"id":0,"left_children":[1,3,5,7,9,11,13,15,17,19,21,23,25,27,29,31,33,35,37,39,41,43,45,47,49,51,53,55,57,59,61,63,65,67,69,71,73,75,77,79,-1,81,83,85,87,89,-1,91,93,95,97,99,101,103,105,107,109,111,113,-1,115,117,119,-1,-1,-1,-1,-1,-1,-1,-1,-1,-1,-1,-1,-1,-1,-1,-1,-1,-1,-1,-1,-1,-1,-1,-1,-1,-1,-1,-1,-1,-1,-1,-1,-1,-1,-1,-1,-1,-1,-1,-1,-1,-1,-1,-1,-1,-1,-1,-1,-1,-1,-1,-1,-1,-1,-1,-1,-1,-1],"loss_changes":[3.8153193E3,3.450464E1,1.3420203E2,1.9118652E1,4.802185E0,3.8616455E1,3.6827866E1,4.331085E0,5.305176E0,4.0939965E0,1.6896896E0,8.037598E0,9.574524E0,1.8812927E1,3.3482835E0,4.074417E0,2.3312607E0,3.1760445E0,3.4611816E0,1.4814754E0,9.1213113E-1,8.7171173E-1,9.183216E-2,4.737854E0,2.9649658E0,3.844818E0,3.005661E0,5.380539E0,1.0703064E1,3.9880276E-3,3.5628107E0,8.932307E-1,2.5804367E0,1.0936661E0,8.422852E-3,4.8466873E-1,2.9112682E0,1.2167969E0,3.0766602E0,1.9570827E-1,0E0,2.3760688E-1,4.3055558E-1,9.5279694E-1,1.4518661E0,4.8225403E-2,0E0,6.4042664E0,2.6925964E0,1.4889069E0,2.503479E0,5.6453466E0,2.4048462E0,1.4875336E0,1.0712513E0,1.6988508E0,4.342041E0,1.0431259E1,8.032158E0,0E0,3.706646E-2,3.7158694E0,3.073693E0,0E0,0E0,0E0,0E0,0E0,0E0,0E0,0E0,0E0,0E0,0E0,0E0,0E0,0E0,0E0,0E0,0E0,0E0,0E0,0E0,0E0,0E0,0E0,0E0,0E0,0E0,0E0,0E0,0E0,0E0,0E0,0E0,0E0,0E0,0E0,0E0,0E0,0E0,0E0,0E0,0E0,0E0,0E0,0E0,0E0,0E0,0E0,0E0,0E0,0E0,0E0,0E0,0E0,0E0,0E0,0E0,0E0,0E0],"parents":[2147483647,0,0,1,1,2,2,3,3,4,4,5,5,6,6,7,7,8,8,9,9,10,10,11,11,12,12,13,13,14,14,15,15,16,16,17,17,18,18,19,19,20,20,21,21,22,22,23,23,24,24,25,25,26,26,27,27,28,28,29,29,30,30,31,31,32,32,33,33,34,34,35,35,36,36,37,37,38,38,39,39,41,41,42,42,43,43,44,44,45,45,47,47,48,48,49,49,50,50,51,51,52,52,53,53,54,54,55,55,56,56,57,57,58,58,60,60,61,61,62,62],"right_children":[2,4,6,8,10,12,14,16,18,20,22,24,26,28,30,32,34,36,38,40,42,44,46,48,50,52,54,56,58,60,62,64,66,68,70,72,74,76,78,80,-1,82,84,86,88,90,-1,92,94,96,98,100,102,104,106,108,110,112,114,-1,116,118,120,-1,-1,-1,-1,-1,-1,-1,-1,-1,-1,-1,-1,-1,-1,-1,-1,-1,-1,-1,-1,-1,-1,-1,-1,-1,-1,-1,-1,-1,-1,-1,-1,-1,-1,-1,-1,-1,-1,-1,-1,-1,-1,-1,-1,-1,-1,-1,-1,-1,-1,-1,-1,-1,-1,-1,-1,-1,-1],"split_conditions":[2E0,1.4370416E0,3.5235007E0,3.5235007E0,2.803563E0,1.4769419E-1,3.7110248E-1,1.7370912E-1,1E0,3E0,1E0,9.496009E-2,3.7069276E-1,1.1305654E-1,7.1428573E-1,5.7565303E0,7E0,1E0,1E0,7E0,7E0,1.5345481E-1,2.4163267E-1,3E0,3E0,1E0,4.5510718E-1,1E0,4E0,2E0,1E0,3E0,2E0,4E0,5E0,6.1063606E-1,4E0,3.9849007E-1,8.121079E0,2.2745928E-1,-5E-4,1E0,4E0,2E0,3E0,1E0,2.1598682E-4,6.0819423E-1,5.8435414E-2,3E0,1E0,5E0,8.580605E-1,1E0,5.7565303E0,3E0,4E0,4.156725E0,4.76141E-1,2.1598682E-4,3E0,1E0,4E0,-5.069814E-4,2.519611E-4,6.344432E-4,3.6770373E-4,6.0053635E-4,4.0497063E-4,9.292372E-4,4.7673113E-4,8.741214E-4,6.206162E-4,4.5945204E-4,-1.6953684E-4,7.9720543E-4,7.3877175E-4,6.2468305E-4,7.293445E-4,-0E0,4.509804E-4,-2.2222224E-4,-6E-4,3.3333336E-4,-1.1111112E-4,-7.611253E-5,5.5486767E-4,4.6706243E-4,3.1203296E-4,8.6743786E-4,2.9904663E-4,-5.9284014E-4,-2.628557E-4,-7.129005E-4,-6.0282217E-4,-5.8622495E-4,-7.4966345E-4,-7.874384E-4,-2.9808225E-4,-3.3251388E-4,4.8123853E-4,-3.8869522E-4,-4.808472E-4,-7.2130444E-4,-2.0630623E-4,3.8009378E-4,-4.163083E-4,1.2729733E-4,-3.8628606E-4,-6.834328E-4,-2.7721905E-4,-2.1561132E-4,-3.9718175E-4,-3.2302097E-4,1.1486999E-4,7.984849E-4,2.519611E-4,-7.23158E-4,3.439738E-4,-2.2913368E-5,-6.6297426E-4],"split_indices":[0,7,4,4,4,6,3,3,23,14,22,6,6,6,7,18,13,15,12,13,13,3,17,0,0,23,6,23,9,11,15,11,9,11,14,7,14,6,4,17,0,20,14,14,14,28,0,7,6,9,24,0,7,29,18,13,14,4,5,0,11,26,9,0,0,0,0,0,0,0,0,0,0,0,0,0,0,0,0,0,0,0,0,0,0,0,0,0,0,0,0,0,0,0,0,0,0,0,0,0,0,0,0,0,0,0,0,0,0,0,0,0,0,0,0,0,0,0,0,0,0],"split_type":[0,0,0,0,0,0,0,0,0,0,0,0,0,0,0,0,0,0,0,0,0,0,0,0,0,0,0,0,0,0,0,0,0,0,0,0,0,0,0,0,0,0,0,0,0,0,0,0,0,0,0,0,0,0,0,0,0,0,0,0,0,0,0,0,0,0,0,0,0,0,0,0,0,0,0,0,0,0,0,0,0,0,0,0,0,0,0,0,0,0,0,0,0,0,0,0,0,0,0,0,0,0,0,0,0,0,0,0,0,0,0,0,0,0,0,0,0,0,0,0,0],"sum_hessian":[1.1842326E4,4.844515E3,6.997811E3,4.4441094E3,4.0040564E2,4.8802734E3,2.1175374E3,5.0040616E2,3.9437034E3,5.2E1,3.4840564E2,2.3817754E3,2.4984983E3,1.7110798E3,4.064575E2,2.1593533E2,2.844708E2,1.6083978E2,3.7828638E3,2.65E1,2.55E1,3.3480005E2,1.3605592E1,1.4974027E3,8.8437256E2,2.2947722E3,2.0372607E2,2.5091753E2,1.4601624E3,6.4844613E0,3.9997302E2,6.481203E0,2.0945413E2,2.5668085E2,2.7789976E1,7.759938E1,8.32404E1,2.1149563E3,1.6679075E3,2.55E1,1E0,1.85E1,7E0,6.846596E1,2.6633408E2,1.2479776E1,1.1258146E0,2.7253232E2,1.2248705E3,3.1048E2,5.738925E2,8.905375E1,2.2057185E3,1.9870076E2,5.0253134E0,2.4032362E1,2.2688516E2,1.2839028E3,1.762595E2,1.1258146E0,5.358647E0,4.3136806E1,3.568362E2,5.0849624E0,1.3962406E0,5.040782E1,1.5904631E2,2.129064E2,4.3774437E1,2.4330828E1,3.459148E0,1.8875315E1,5.8724064E1,7.560675E1,7.633646E0,1.0262162E3,1.08874E3,4.4272305E2,1.2251844E3,1E0,2.45E1,1.7E1,1.5E0,3.5E0,3.5E0,2.2471488E0,6.62188E1,1.4048155E2,1.2585253E2,1.0922572E1,1.5572046E0,1.821495E2,9.0382805E1,3.6189258E2,8.6297784E2,2.0138661E2,1.0909339E2,5.616119E2,1.2280656E1,8.0415634E1,8.638119E0,3.7006903E2,1.8356495E3,1.9192708E2,6.7736845E0,3.169925E0,1.8553885E0,1.2577282E1,1.145508E1,1.9426459E2,3.2620575E1,5.902185E2,6.9368427E2,6.634431E1,1.099152E2,3.9624062E0,1.3962406E0,2.612169E0,4.0524635E1,3.501663E2,6.669925E0],"tree_param":{"num_deleted":"0","num_feature":"30","num_nodes":"121","size_leaf_vector":"1"}},{"base_weights":[-1.2737913E-9,6.688877E-1,-4.7636217E-1,6.986553E-1,3.6446348E-1,-5.5675614E-1,-2.6926723E-1,5.073565E-1,7.290148E-1,1.1232691E-1,4.174563E-1,-6.4798486E-1,-4.78545E-1,-3.3385056E-1,-2.6568428E-3,4.0185732E-1,6.057378E-1,5.340007E-1,7.372919E-1,3.927655E-1,-1.766054E-1,4.000013E-1,8.4851885E-1,-7.700852E-1,-6.222671E-1,-4.5531172E-1,-6.9155926E-1,-5.748337E-1,-2.934797E-1,7.538742E-1,-1.6739568E-2,-3.1718788E-1,4.2385367E-1,5.728469E-1,9.2404497E-1,6.9787306E-1,3.994936E-1,7.680768E-1,7.0145136E-1,4.480542E-1,-8.6936716E-4,-1.0689921E-1,-9.298005E-4,5.438895E-1,3.657619E-1,8.9873815E-1,3.360967E-4,-7.1522826E-1,-8.45022E-1,-5.438122E-1,-6.5365976E-1,-2.600462E-1,-4.6320638E-1,-7.073863E-1,7.6588E-2,-1.2851544E-1,-6.2162584E-1,-3.2274705E-1,-6.159811E-2,-6.5440167E-4,8.6825895E-1,2.4984327E-1,-4.5483124E-2,-5.4926664E-4,4.936531E-4,6.294221E-4,3.5837485E-4,4.818317E-4,6.200936E-4,9.592876E-4,5.9719826E-4,7.1039825E-4,-7.001541E-4,4.6164048E-4,-1.8795936E-4,8.010617E-4,7.3808635E-4,3.7187335E-4,7.0816156E-4,9.07298E-4,4.137061E-4,-2.332555E-4,2.233506E-4,5.562671E-4,-7.037622E-4,5.0808466E-4,3.141516E-4,9.403067E-4,4.0392854E-4,-6.760932E-4,-8.572891E-4,-8.706488E-4,-5.621756E-4,-3.3078494E-4,-5.9082836E-4,-6.94927E-4,-5.9135864E-4,-3.2284096E-4,5.0898927E-4,-5.236423E-4,-4.4212228E-4,-7.2232686E-4,-2.7686774E-4,4.5674705E-4,-5.889278E-4,1.20040786E-4,-4.1320547E-4,-6.7942037E-4,-2.683269E-4,-2.1989076E-4,-4.0810526E-4,-3.3598574E-4,9.4971736E-5,9.63367E-4,-5.8416155E-4,-9.0563163E-4,3.2904654E-4,-3.0750103E-5,-7.2886545E-4],"categories":[],"categories_nodes":[],"categories_segments":[],"categories_sizes":[],"default_left":[0,0,0,0,0,0,0,0,0,0,0,0,0,0,0,0,0,0,0,0,0,0,0,0,0,0,0,0,0,0,0,0,0,0,0,0,0,0,0,0,0,0,0,0,0,0,0,0,0,0,0,0,0,0,0,0,0,0,0,0,0,0,0,0,0,0,0,0,0,0,0,0,0,0,0,0,0,0,0,0,0,0,0,0,0,0,0,0,0,0,0,0,0,0,0,0,0,0,0,0,0,0,0,0,0,0,0,0,0,0,0,0,0,0,0,0,0,0,0],"id":1,"left_children":[1,3,5,7,9,11,13,15,17,19,21,23,25,27,29,31,33,35,37,39,41,43,45,47,49,51,53,55,57,59,61,63,65,67,69,71,73,75,77,79,-1,81,-1,83,85,87,-1,89,91,93,95,97,99,101,103,105,107,109,111,-1,113,115,117,-1,-1,-1,-1,-1,-1,-1,-1,-1,-1,-1,-1,-1,-1,-1,-1,-1,-1,-1,-1,-1,-1,-1,-1,-1,-1,-1,-1,-1,-1,-1,-1,-1,-1,-1,-1,-1,-1,-1,-1,-1,-1,-1,-1,-1,-1,-1,-1,-1,-1,-1,-1,-1,-1,-1,-1],"loss_changes":[1.6893809E4,1.9959375E2,5.1541406E2,1.1629492E2,2.6227783E1,1.5884521E2,1.4913672E2,2.8347351E1,2.758496E1,2.7852919E1,1.1884186E1,3.1842773E1,5.914087E1,6.7664E1,1.801793E1,2.1205002E1,1.4373108E1,1.5357742E1,1.780664E1,1.2553324E1,8.803791E0,7.5025635E0,1.3019485E0,6.7401123E0,2.0598389E1,1.658252E1,1.4394348E1,2.0792114E1,4.052307E1,5.546686E0,1.273191E1,7.8200736E0,1.7179825E1,5.260254E0,9.4390106E-1,6.0736237E0,1.4396057E1,8.246094E0,1.6751465E1,2.2692986E0,0E0,6.576126E0,0E0,5.000099E0,9.138153E0,7.755356E-1,0E0,5.191345E0,4.944031E0,2.421582E1,1.5198486E1,2.0607222E1,1.3036621E1,7.234436E0,6.5219197E0,6.8495655E0,1.8282745E1,4.6479736E1,2.8847975E1,0E0,4.5706654E0,1.509891E1,1.5073648E1,0E0,0E0,0E0,0E0,0E0,0E0,0E0,0E0,0E0,0E0,0E0,0E0,0E0,0E0,0E0,0E0,0E0,0E0,0E0,0E0,0E0,0E0,0E0,0E0,0E0,0E0,0E0,0E0,0E0,0E0,0E0,0E0,0E0,0E0,0E0,0E0,0E0,0E0,0E0,0E0,0E0,0E0,0E0,0E0,0E0,0E0,0E0,0E0,0E0,0E0,0E0,0E0,0E0,0E0,0E0,0E0],"parents":[2147483647,0,0,1,1,2,2,3,3,4,4,5,5,6,6,7,7,8,8,9,9,10,10,11,11,12,12,13,13,14,14,15,15,16,16,17,17,18,18,19,19,20,20,21,21,22,22,23,23,24,24,25,25,26,26,27,27,28,28,29,29,30,30,31,31,32,32,33,33,34,34,35,35,36,36,37,37,38,38,39,39,41,41,43,43,44,44,45,45,47,47,48,48,49,49,50,50,51,51,52,52,53,53,54,54,55,55,56,56,57,57,58,58,60,60,61,61,62,62],"right_children":[2,4,6,8,10,12,14,16,18,20,22,24,26,28,30,32,34,36,38,40,42,44,46,48,50,52,54,56,58,60,62,64,66,68,70,72,74,76,78,80,-1,82,-1,84,86,88,-1,90,92,94,96,98,100,102,104,106,108,110,112,-1,114,116,118,-1,-1,-1,-1,-1,-1,-1,-1,-1,-1,-1,-1,-1,-1,-1,-1,-1,-1,-1,-1,-1,-1,-1,-1,-1,-1,-1,-1,-1,-1,-1,-1,-1,-1,-1,-1,-1,-1,-1,-1,-1,-1,-1,-1,-1,-1,-1,-1,-1,-1,-1,-1,-1,-1,-1,-1],"split_conditions":[2E0,1.4370416E0,3.5235007E0,3.5235007E0,2.803563E0,1.4769419E-1,3.7110248E-1,1.7370912E-1,1E0,3E0,1E0,4E0,3.7069276E-1,1.1305654E-1,7.1428573E-1,5.7565303E0,7E0,1E0,1E0,7E0,1E0,1.5345481E-1,1E0,3E0,3E0,1E0,4.5510718E-1,1E0,4E0,1E0,1E0,3E0,2E0,1E0,5E0,1E0,4E0,3.9849007E-1,7.6442614E-2,1E0,-8.6936716E-4,7E0,-9.298005E-4,1E0,2E0,2.4163267E-1,3.360967E-4,1E0,1E0,9.5033966E-2,1E0,5E0,2E0,1E0,5.7565303E0,3E0,4E0,4.156725E0,4.76141E-1,-6.5440167E-4,2.4163267E-1,1E0,4E0,-5.4926664E-4,4.936531E-4,6.294221E-4,3.5837485E-4,4.818317E-4,6.200936E-4,9.592876E-4,5.9719826E-4,7.1039825E-4,-7.001541E-4,4.6164048E-4,-1.8795936E-4,8.010617E-4,7.3808635E-4,3.7187335E-4,7.0816156E-4,9.07298E-4,4.137061E-4,-2.332555E-4,2.233506E-4,5.562671E-4,-7.037622E-4,5.0808466E-4,3.141516E-4,9.403067E-4,4.0392854E-4,-6.760932E-4,-8.572891E-4,-8.706488E-4,-5.621756E-4,-3.3078494E-4,-5.9082836E-4,-6.94927E-4,-5.9135864E-4,-3.2284096E-4,5.0898927E-4,-5.236423E-4,-4.4212228E-4,-7.2232686E-4,-2.7686774E-4,4.5674705E-4,-5.889278E-4,1.20040786E-4,-4.1320547E-4,-6.7942037E-4,-2.683269E-4,-2.1989076E-4,-4.0810526E-4,-3.3598574E-4,9.4971736E-5,9.63367E-4,-5.8416155E-4,-9.0563163E-4,3.2904654E-4,-3.0750103E-5,-7.2886545E-4],"split_indices":[0,7,4,4,4,6,3,3,23,14,22,8,6,6,7,18,13,15,12,13,20,3,28,9,0,23,6,23,9,23,15,11,9,15,14,29,14,6,6,23,0,13,0,29,14,17,0,15,20,3,19,0,13,29,18,13,14,4,5,0,17,26,9,0,0,0,0,0,0,0,0,0,0,0,0,0,0,0,0,0,0,0,0,0,0,0,0,0,0,0,0,0,0,0,0,0,0,0,0,0,0,0,0,0,0,0,0,0,0,0,0,0,0,0,0,0,0,0,0],"split_type":[0,0,0,0,0,0,0,0,0,0,0,0,0,0,0,0,0,0,0,0,0,0,0,0,0,0,0,0,0,0,0,0,0,0,0,0,0,0,0,0,0,0,0,0,0,0,0,0,0,0,0,0,0,0,0,0,0,0,0,0,0,0,0,0,0,0,0,0,0,0,0,0,0,0,0,0,0,0,0,0,0,0,0,0,0,0,0,0,0,0,0,0,0,0,0,0,0,0,0,0,0,0,0,0,0,0,0,0,0,0,0,0,0,0,0,0,0,0,0],"sum_hessian":[5.3017688E4,2.205233E4,3.0965355E4,2.0086871E4,1.9654574E3,2.2304926E4,8.660431E3,2.7536296E3,1.7333242E4,3.4188925E2,1.6235682E3,1.0292286E4,1.2012639E4,6.971429E3,1.6890016E3,1.3312006E3,1.422429E3,7.083974E2,1.6624846E4,1.7331236E2,1.6857687E2,1.5622366E3,6.133165E1,1.7856404E3,8.506646E3,1.0834109E4,1.1785302E3,9.9841565E2,5.9730137E3,2.990597E1,1.6590956E3,3.911567E1,1.2920848E3,1.2917511E3,1.3067787E2,3.1745178E2,3.909456E2,8.932194E3,7.692651E3,1.6665685E2,6.6555285E0,1.5534229E2,1.3234589E1,2.974293E2,1.2648073E3,5.51708E1,6.160852E0,1.0370328E3,7.486075E2,2.436299E3,6.070347E3,4.2232407E2,1.0411785E4,1.1548152E3,2.3714954E1,9.509698E1,9.0331866E2,5.303261E3,6.697522E2,1.8919321E0,2.8014038E1,1.6072795E2,1.4983677E3,3.0662151E1,8.45352E0,3.1005756E2,9.820273E2,4.4524203E2,8.465091E2,1.1621221E2,1.4465665E1,3.1512045E2,2.3313553E0,3.5373773E2,3.7207855E1,4.2414917E3,4.690702E3,1.5462247E2,7.5380283E3,9.828768E0,1.5682806E2,1.12566956E2,4.277534E1,2.9505627E2,2.3730152E0,3.3424237E2,9.305649E2,5.0064575E1,5.106221E0,8.175674E2,2.1946552E2,6.845107E2,6.409682E1,4.419383E2,1.9943608E3,3.6454858E3,2.424861E3,3.9097928E2,3.1344774E1,2.6867117E3,7.725073E3,1.115428E3,3.938714E1,1.5292943E1,8.422011E0,5.107923E1,4.4017742E1,7.755303E2,1.2778836E2,2.4067336E3,2.8965278E3,2.4290932E2,4.268429E2,2.6608374E1,1.4056631E0,9.641174E0,1.5108678E2,1.467769E3,3.0598598E1],"tree_param":{"num_deleted":"0","num_feature":"30","num_nodes":"119","size_leaf_vector":"1"}},{"base_weights":[3.1329819E-9,6.7329544E-1,-4.7438648E-1,7.0335066E-1,3.6793014E-1,-5.541929E-1,-2.7078673E-1,5.0878996E-1,7.343284E-1,1.0989992E-1,4.2244834E-1,-6.4501715E-1,-4.766379E-1,-3.344835E-1,-8.799039E-3,4.0225574E-1,6.084757E-1,5.36597E-1,7.427554E-1,3.9191037E-1,-1.7758332E-1,4.0515694E-1,8.5050255E-1,-7.672311E-1,-6.194572E-1,-4.5363212E-1,-6.900535E-1,-5.713574E-1,-2.9514295E-1,7.4666697E-1,-2.2685567E-2,-3.155471E-1,4.2433786E-1,5.7586694E-1,9.244374E-1,7.017949E-1,4.0194964E-1,7.7394223E-1,7.06501E-1,4.476423E-1,-8.6817524E-4,-1.0778784E-1,-9.29324E-4,5.487492E-1,3.7104475E-1,9.0075856E-1,3.3994604E-4,-7.124202E-1,-8.426389E-1,-5.42566E-1,-6.502356E-1,-2.5907058E-1,-4.615197E-1,-7.0616764E-1,7.59257E-2,-1.3425194E-1,-6.1782336E-1,-3.2388237E-1,-6.818943E-2,-6.650284E-4,8.6831754E-1,2.3792334E-1,-5.0799474E-2,-5.464926E-4,5.040914E-4,6.2932784E-4,3.593131E-4,6.051821E-4,4.419437E-4,9.587727E-4,6.0365815E-4,7.152315E-4,-7.092235E-4,4.6548404E-4,-1.8968257E-4,8.080953E-4,7.429505E-4,6.3216797E-4,7.3841336E-4,9.047685E-4,4.1351558E-4,-2.3332026E-4,2.2308073E-4,5.620472E-4,-7.1375945E-4,5.152656E-4,3.1892813E-4,9.4107E-4,4.1417297E-4,-6.7360466E-4,-8.5493474E-4,-8.685352E-4,-5.6184613E-4,-3.3075214E-4,-5.8974396E-4,-6.912778E-4,-5.885891E-4,-3.2165428E-4,5.0363655E-4,-5.2112906E-4,-4.4080772E-4,-7.2123756E-4,-2.7553667E-4,4.4429078E-4,-5.7300605E-4,1.103301E-4,-4.1460918E-4,-6.752133E-4,-2.7189983E-4,-2.2336094E-4,-4.0766253E-4,-3.3585657E-4,8.3887215E-5,9.621684E-4,-5.763931E-4,-9.0371206E-4,3.1500254E-4,-3.6384572E-5,-7.2773005E-4],"categories":[],"categories_nodes":[],"categories_segments":[],"categories_sizes":[],"default_left":[0,0,0,0,0,0,0,0,0,0,0,0,0,0,0,0,0,0,0,0,0,0,0,0,0,0,0,0,0,0,0,0,0,0,0,0,0,0,0,0,0,0,0,0,0,0,0,0,0,0,0,0,0,0,0,0,0,0,0,0,0,0,0,0,0,0,0,0,0,0,0,0,0,0,0,0,0,0,0,0,0,0,0,0,0,0,0,0,0,0,0,0,0,0,0,0,0,0,0,0,0,0,0,0,0,0,0,0,0,0,0,0,0,0,0,0,0,0,0],"id":2,"left_children":[1,3,5,7,9,11,13,15,17,19,21,23,25,27,29,31,33,35,37,39,41,43,45,47,49,51,53,55,57,59,61,63,65,67,69,71,73,75,77,79,-1,81,-1,83,85,87,-1,89,91,93,95,97,99,101,103,105,107,109,111,-1,113,115,117,-1,-1,-1,-1,-1,-1,-1,-1,-1,-1,-1,-1,-1,-1,-1,-1,-1,-1,-1,-1,-1,-1,-1,-1,-1,-1,-1,-1,-1,-1,-1,-1,-1,-1,-1,-1,-1,-1,-1,-1,-1,-1,-1,-1,-1,-1,-1,-1,-1,-1,-1,-1,-1,-1,-1,-1],"loss_changes":[1.6664324E4,1.9766602E2,4.9718457E2,1.17950195E2,2.7166382E1,1.5457227E2,1.4386328E2,2.8426147E1,2.7817383E1,2.753586E1,1.1473511E1,3.1152344E1,5.7937256E1,6.445648E1,1.7716164E1,2.0866287E1,1.38172E1,1.5194336E1,1.7813477E1,1.242071E1,8.738184E0,7.3230286E0,1.2611275E0,6.6204834E0,1.9476074E1,1.6320557E1,1.4279785E1,1.9956604E1,3.8782227E1,5.812126E0,1.2157157E1,7.7734833E0,1.6693924E1,4.6993103E0,8.380585E-1,6.405487E0,1.4585346E1,8.628418E0,1.7373291E1,2.195755E0,0E0,6.5012264E0,0E0,5.3182297E0,9.191376E0,6.891403E-1,0E0,5.0563965E0,4.819336E0,2.3799622E1,1.4719238E1,2.0193192E1,1.2479492E1,7.1274414E0,6.1470437E0,6.6343164E0,1.7516449E1,4.4378296E1,2.7299353E1,0E0,4.4183865E0,1.4503618E1,1.4581585E1,0E0,0E0,0E0,0E0,0E0,0E0,0E0,0E0,0E0,0E0,0E0,0E0,0E0,0E0,0E0,0E0,0E0,0E0,0E0,0E0,0E0,0E0,0E0,0E0,0E0,0E0,0E0,0E0,0E0,0E0,0E0,0E0,0E0,0E0,0E0,0E0,0E0,0E0,0E0,0E0,0E0,0E0,0E0,0E0,0E0,0E0,0E0,0E0,0E0,0E0,0E0,0E0,0E0,0E0,0E0,0E0],"parents":[2147483647,0,0,1,1,2,2,3,3,4,4,5,5,6,6,7,7,8,8,9,9,10,10,11,11,12,12,13,13,14,14,15,15,16,16,17,17,18,18,19,19,20,20,21,21,22,22,23,23,24,24,25,25,26,26,27,27,28,28,29,29,30,30,31,31,32,32,33,33,34,34,35,35,36,36,37,37,38,38,39,39,41,41,43,43,44,44,45,45,47,47,48,48,49,49,50,50,51,51,52,52,53,53,54,54,55,55,56,56,57,57,58,58,60,60,61,61,62,62],"right_children":[2,4,6,8,10,12,14,16,18,20,22,24,26,28,30,32,34,36,38,40,42,44,46,48,50,52,54,56,58,60,62,64,66,68,70,72,74,76,78,80,-1,82,-1,84,86,88,-1,90,92,94,96,98,100,102,104,106,108,110,112,-1,114,116,118,-1,-1,-1,-1,-1,-1,-1,-1,-1,-1,-1,-1,-1,-1,-1,-1,-1,-1,-1,-1,-1,-1,-1,-1,-1,-1,-1,-1,-1,-1,-1,-1,-1,-1,-1,-1,-1,-1,-1,-1,-1,-1,-1,-1,-1,-1,-1,-1,-1,-1,-1,-1,-1,-1,-1,-1],"split_conditions":[2E0,1.4370416E0,3.5235007E0,3.5235007E0,2.803563E0,1.4769419E-1,3.7110248E-1,1.7370912E-1,1E0,3E0,1E0,4E0,3.7069276E-1,1.1305654E-1,7.1428573E-1,5.7565303E0,7E0,1E0,1E0,7E0,1E0,1.5345481E-1,1E0,3E0,3E0,1E0,4.5510718E-1,1E0,4E0,1E0,1E0,3E0,2E0,4E0,5E0,1E0,4E0,3.9849007E-1,8.121079E0,1E0,-8.6817524E-4,7E0,-9.29324E-4,1E0,2E0,2.4163267E-1,3.3994604E-4,1E0,1E0,9.5033966E-2,1E0,5E0,2E0,1E0,5.7565303E0,3E0,4E0,4.156725E0,4.76141E-1,-6.650284E-4,2.4163267E-1,1E0,4E0,-5.464926E-4,5.040914E-4,6.2932784E-4,3.593131E-4,6.051821E-4,4.419437E-4,9.587727E-4,6.0365815E-4,7.152315E-4,-7.092235E-4,4.6548404E-4,-1.8968257E-4,8.080953E-4,7.429505E-4,6.3216797E-4,7.3841336E-4,9.047685E-4,4.1351558E-4,-2.3332026E-4,2.2308073E-4,5.620472E-4,-7.1375945E-4,5.152656E-4,3.1892813E-4,9.4107E-4,4.1417297E-4,-6.7360466E-4,-8.5493474E-4,-8.685352E-4,-5.6184613E-4,-3.3075214E-4,-5.8974396E-4,-6.912778E-4,-5.885891E-4,-3.2165428E-4,5.0363655E-4,-5.2112906E-4,-4.4080772E-4,-7.2123756E-4,-2.7553667E-4,4.4429078E-4,-5.7300605E-4,1.103301E-4,-4.1460918E-4,-6.752133E-4,-2.7189983E-4,-2.2336094E-4,-4.0766253E-4,-3.3585657E-4,8.3887215E-5,9.621684E-4,-5.763931E-4,-9.0371206E-4,3.1500254E-4,-3.6384572E-5,-7.2773005E-4],"split_indices":[0,7,4,4,4,6,3,3,23,14,22,8,6,6,7,18,13,15,12,13,20,3,28,9,0,23,6,23,9,23,15,11,9,11,14,29,14,6,4,23,0,13,0,29,14,17,0,15,20,3,19,0,13,29,18,13,14,4,5,0,17,26,9,0,0,0,0,0,0,0,0,0,0,0,0,0,0,0,0,0,0,0,0,0,0,0,0,0,0,0,0,0,0,0,0,0,0,0,0,0,0,0,0,0,0,0,0,0,0,0,0,0,0,0,0,0,0,0,0],"split_type":[0,0,0,0,0,0,0,0,0,0,0,0,0,0,0,0,0,0,0,0,0,0,0,0,0,0,0,0,0,0,0,0,0,0,0,0,0,0,0,0,0,0,0,0,0,0,0,0,0,0,0,0,0,0,0,0,0,0,0,0,0,0,0,0,0,0,0,0,0,0,0,0,0,0,0,0,0,0,0,0,0,0,0,0,0,0,0,0,0,0,0,0,0,0,0,0,0,0,0,0,0,0,0,0,0,0,0,0,0,0,0,0,0,0,0,0,0,0,0],"sum_hessian":[5.217147E4,2.1564547E4,3.0606922E4,1.963108E4,1.9334684E3,2.198686E4,8.620063E3,2.6987249E3,1.6932354E4,3.377832E2,1.5956852E3,1.0123715E4,1.1863145E4,6.933945E3,1.6861189E3,1.306985E3,1.39174E3,6.947738E2,1.623758E4,1.7033127E2,1.6745193E2,1.5356007E3,6.0084545E1,1.7460455E3,8.377669E3,1.0711582E4,1.1515626E3,9.8565936E2,5.9482856E3,2.9481356E1,1.6566376E3,3.861081E1,1.2683741E3,1.2641013E3,1.2763864E2,3.1010092E2,3.8467285E2,8.717901E3,7.5196787E3,1.6373427E2,6.596997E0,1.5427191E2,1.3180016E1,2.9187823E2,1.2437224E3,5.400442E1,6.080125E0,1.0171604E3,7.2888513E2,2.4001619E3,5.9775073E3,4.186507E2,1.0292931E4,1.1279125E3,2.3650139E1,9.508487E1,8.9057446E2,5.2793296E3,6.6895605E2,1.9845784E0,2.7496777E1,1.6058568E2,1.4960519E3,3.0383152E1,8.227658E0,3.0335925E2,9.650149E2,1.0342013E3,2.2989998E2,1.13500946E2,1.4137693E1,3.0766428E2,2.436646E0,3.4756198E2,3.7110867E1,4.135496E3,4.5824053E3,2.2648965E3,5.254782E3,9.602121E0,1.5413214E2,1.1205338E2,4.2218525E1,2.8938498E2,2.493256E0,3.277799E2,9.159425E2,4.9010136E1,4.994287E0,8.039272E2,2.1323317E2,6.654229E2,6.3462215E1,4.3867252E2,1.9614894E3,3.5823115E3,2.3951958E3,3.8743787E2,3.1212816E1,2.6479465E3,7.6449844E3,1.0891238E3,3.8788734E1,1.5287541E1,8.362597E0,5.1106407E1,4.3978466E1,7.630327E2,1.2754174E2,2.4015532E3,2.8777761E3,2.4193047E2,4.2702557E2,2.6133131E1,1.3636459E0,9.478169E0,1.511075E2,1.4658903E3,3.0161661E1],"tree_param":{"num_deleted":"0","num_feature":"30","num_nodes":"119","size_leaf_vector":"1"}},{"base_weights":[8.258676E-10,6.772486E-1,-4.725247E-1,7.07524E-1,3.7131047E-1,-5.518448E-1,-2.7177197E-1,5.101328E-1,7.3903865E-1,1.07719354E-1,4.272868E-1,-6.423436E-1,-4.7481266E-1,-3.34693E-1,-1.3841936E-2,4.0259805E-1,6.110512E-1,5.3887844E-1,7.476003E-1,3.911222E-1,-1.7840426E-1,4.1014594E-1,8.5230607E-1,-7.6475847E-1,-6.1689734E-1,-4.5200488E-1,-6.8865794E-1,-5.682168E-1,-2.9617447E-1,7.4070746E-1,-2.7566738E-2,-3.1437457E-1,4.2478073E-1,5.7869947E-1,9.247428E-1,7.05102E-1,4.041964E-1,7.790633E-1,7.1106595E-1,4.4725725E-1,-8.6701E-4,-1.08622305E-1,-9.2875335E-4,5.5403906E-1,3.7602907E-1,9.0252477E-1,3.4371522E-4,-7.1001625E-1,-8.40526E-1,-5.412968E-1,-6.471482E-1,-2.5806642E-1,-4.5988524E-1,-7.050337E-1,7.536042E-2,-4.74163E-1,-7.836861E-1,-3.244812E-1,-7.31912E-2,-6.726998E-4,8.682712E-1,2.279236E-1,-5.514011E-2,-5.4405053E-4,5.1235803E-4,6.292294E-4,3.6015737E-4,6.0819805E-4,4.440551E-4,9.582593E-4,6.0933497E-4,7.1947917E-4,-7.180956E-4,4.690426E-4,-1.9129553E-4,8.142337E-4,7.472019E-4,6.3409854E-4,7.442091E-4,9.0237166E-4,4.133232E-4,-2.3338273E-4,2.2281906E-4,5.6749565E-4,-7.115815E-4,5.2196643E-4,3.2345598E-4,9.416354E-4,4.2357456E-4,-6.714713E-4,-8.5287873E-4,-8.666362E-4,-5.616316E-4,-3.3020516E-4,-5.8866275E-4,-6.880015E-4,-5.860491E-4,-3.204624E-4,4.987081E-4,-5.187661E-4,-4.39497E-4,-7.202194E-4,-2.740445E-4,4.334997E-4,-5.593429E-4,-5.535445E-4,-3.4036348E-5,-8.278456E-4,-2.566748E-4,-2.25867E-4,-4.069406E-4,-3.3517284E-4,7.514572E-5,9.610559E-4,-5.695799E-4,-9.019666E-4,3.0327585E-4,-4.0991574E-5,-7.265916E-4],"categories":[],"categories_nodes":[],"categories_segments":[],"categories_sizes":[],"default_left":[0,0,0,0,0,0,0,0,0,0,0,0,0,0,0,0,0,0,0,0,0,0,0,0,0,0,0,0,0,0,0,0,0,0,0,0,0,0,0,0,0,0,0,0,0,0,0,0,0,0,0,0,0,0,0,0,0,0,0,0,0,0,0,0,0,0,0,0,0,0,0,0,0,0,0,0,0,0,0,0,0,0,0,0,0,0,0,0,0,0,0,0,0,0,0,0,0,0,0,0,0,0,0,0,0,0,0,0,0,0,0,0,0,0,0,0,0,0,0],"id":3,"left_children":[1,3,5,7,9,11,13,15,17,19,21,23,25,27,29,31,33,35,37,39,41,43,45,47,49,51,53,55,57,59,61,63,65,67,69,71,73,75,77,79,-1,81,-1,83,85,87,-1,89,91,93,95,97,99,101,103,105,107,109,111,-1,113,115,117,-1,-1,-1,-1,-1,-1,-1,-1,-1,-1,-1,-1,-1,-1,-1,-1,-1,-1,-1,-1,-1,-1,-1,-1,-1,-1,-1,-1,-1,-1,-1,-1,-1,-1,-1,-1,-1,-1,-1,-1,-1,-1,-1,-1,-1,-1,-1,-1,-1,-1,-1,-1,-1,-1,-1,-1],"loss_changes":[1.6451016E4,1.954209E2,4.820205E2,1.19206055E2,2.8055054E1,1.509961E2,1.3920386E2,2.851007E1,2.8000977E1,2.7229446E1,1.1092468E1,3.0605469E1,5.688916E1,6.1856445E1,1.745146E1,2.0582947E1,1.3317657E1,1.5015793E1,1.771289E1,1.2294014E1,8.662042E0,7.2125397E0,1.2211647E0,6.507141E0,1.8550781E1,1.6082031E1,1.4170654E1,1.9392365E1,3.7350586E1,6.0119877E0,1.1665053E1,7.714817E0,1.6257004E1,4.6552124E0,7.474899E-1,6.7484894E0,1.4759403E1,8.948242E0,1.831543E1,2.129589E0,0E0,6.430325E0,0E0,5.3019333E0,9.230057E0,6.1183167E-1,0E0,4.938263E0,4.7051086E0,2.348291E1,1.4318359E1,1.9812248E1,1.1999268E1,7.033325E0,5.8300905E0,2.378891E1,6.648529E0,4.2631287E1,2.5996014E1,0E0,4.2894745E0,1.4008175E1,1.41609535E1,0E0,0E0,0E0,0E0,0E0,0E0,0E0,0E0,0E0,0E0,0E0,0E0,0E0,0E0,0E0,0E0,0E0,0E0,0E0,0E0,0E0,0E0,0E0,0E0,0E0,0E0,0E0,0E0,0E0,0E0,0E0,0E0,0E0,0E0,0E0,0E0,0E0,0E0,0E0,0E0,0E0,0E0,0E0,0E0,0E0,0E0,0E0,0E0,0E0,0E0,0E0,0E0,0E0,0E0,0E0,0E0],"parents":[2147483647,0,0,1,1,2,2,3,3,4,4,5,5,6,6,7,7,8,8,9,9,10,10,11,11,12,12,13,13,14,14,15,15,16,16,17,17,18,18,19,19,20,20,21,21,22,22,23,23,24,24,25,25,26,26,27,27,28,28,29,29,30,30,31,31,32,32,33,33,34,34,35,35,36,36,37,37,38,38,39,39,41,41,43,43,44,44,45,45,47,47,48,48,49,49,50,50,51,51,52,52,53,53,54,54,55,55,56,56,57,57,58,58,60,60,61,61,62,62],"right_children":[2,4,6,8,10,12,14,16,18,20,22,24,26,28,30,32,34,36,38,40,42,44,46,48,50,52,54,56,58,60,62,64,66,68,70,72,74,76,78,80,-1,82,-1,84,86,88,-1,90,92,94,96,98,100,102,104,106,108,110,112,-1,114,116,118,-1,-1,-1,-1,-1,-1,-1,-1,-1,-1,-1,-1,-1,-1,-1,-1,-1,-1,-1,-1,-1,-1,-1,-1,-1,-1,-1,-1,-1,-1,-1,-1,-1,-1,-1,-1,-1,-1,-1,-1,-1,-1,-1,-1,-1,-1,-1,-1,-1,-1,-1,-1,-1,-1,-1,-1],"split_conditions":[2E0,1.4370416E0,3.5235007E0,3.5235007E0,2.803563E0,1.4769419E-1,3.7110248E-1,1.7370912E-1,1E0,3E0,1E0,4E0,3.7069276E-1,1.1305654E-1,7.1428573E-1,5.7565303E0,7E0,1E0,1E0,7E0,1E0,1.5345481E-1,1E0,3E0,3E0,1E0,4.5510718E-1,3E0,4E0,1E0,1E0,3E0,2E0,4E0,5E0,1E0,4E0,3.9849007E-1,8.121079E0,1E0,-8.6701E-4,7E0,-9.2875335E-4,1E0,2E0,2.4163267E-1,3.4371522E-4,1E0,1E0,9.5033966E-2,1E0,5E0,2E0,1E0,5.7565303E0,4E0,1E0,4.156725E0,4.76141E-1,-6.726998E-4,2.4163267E-1,1E0,4E0,-5.4405053E-4,5.1235803E-4,6.292294E-4,3.6015737E-4,6.0819805E-4,4.440551E-4,9.582593E-4,6.0933497E-4,7.1947917E-4,-7.180956E-4,4.690426E-4,-1.9129553E-4,8.142337E-4,7.472019E-4,6.3409854E-4,7.442091E-4,9.0237166E-4,4.133232E-4,-2.3338273E-4,2.2281906E-4,5.6749565E-4,-7.115815E-4,5.2196643E-4,3.2345598E-4,9.416354E-4,4.2357456E-4,-6.714713E-4,-8.5287873E-4,-8.666362E-4,-5.616316E-4,-3.3020516E-4,-5.8866275E-4,-6.880015E-4,-5.860491E-4,-3.204624E-4,4.987081E-4,-5.187661E-4,-4.39497E-4,-7.202194E-4,-2.740445E-4,4.334997E-4,-5.593429E-4,-5.535445E-4,-3.4036348E-5,-8.278456E-4,-2.566748E-4,-2.25867E-4,-4.069406E-4,-3.3517284E-4,7.514572E-5,9.610559E-4,-5.695799E-4,-9.019666E-4,3.0327585E-4,-4.0991574E-5,-7.265916E-4],"split_indices":[0,7,4,4,4,6,3,3,23,14,22,8,6,6,7,18,13,15,12,13,20,3,28,9,0,23,6,0,9,23,15,11,9,11,14,29,14,6,4,23,0,13,0,29,14,17,0,15,20,3,19,0,13,29,18,14,27,4,5,0,17,26,9,0,0,0,0,0,0,0,0,0,0,0,0,0,0,0,0,0,0,0,0,0,0,0,0,0,0,0,0,0,0,0,0,0,0,0,0,0,0,0,0,0,0,0,0,0,0,0,0,0,0,0,0,0,0,0,0],"split_type":[0,0,0,0,0,0,0,0,0,0,0,0,0,0,0,0,0,0,0,0,0,0,0,0,0,0,0,0,0,0,0,0,0,0,0,0,0,0,0,0,0,0,0,0,0,0,0,0,0,0,0,0,0,0,0,0,0,0,0,0,0,0,0,0,0,0,0,0,0,0,0,0,0,0,0,0,0,0,0,0,0,0,0,0,0,0,0,0,0,0,0,0,0,0,0,0,0,0,0,0,0,0,0,0,0,0,0,0,0,0,0,0,0,0,0,0,0,0,0],"sum_hessian":[5.1404746E4,2.1125736E4,3.027901E4,1.9222209E4,1.9035286E3,2.170237E4,8.576641E3,2.6487852E3,1.6573424E4,3.3393964E2,1.5695889E3,9.975555E3,1.1726814E4,6.8944644E3,1.682176E3,1.2847712E3,1.3640139E3,6.824568E2,1.5890967E4,1.6758311E2,1.6635652E2,1.5106306E3,5.8958237E1,1.7117499E3,8.263805E3,1.0599439E4,1.1273749E3,9.7424207E2,5.920222E3,2.910491E1,1.6530712E3,3.816181E1,1.2466095E3,1.2390706E3,1.2494336E2,3.0356442E2,3.7889233E2,8.527151E3,7.363815E3,1.6104228E2,6.5408406E0,1.5324922E2,1.3107311E1,2.8660217E2,1.2240284E3,5.295487E1,6.0033665E0,9.9977875E2,7.119711E2,2.3670764E3,5.8967285E3,4.1519168E2,1.0184247E4,1.1037937E3,2.3581244E1,6.804303E2,2.9381177E2,5.252931E3,6.6729114E2,2.0555837E0,2.7049326E1,1.6031866E2,1.4927524E3,3.013256E1,8.02925E0,2.9730157E2,9.4930786E2,1.0135087E3,2.2556189E2,1.11099365E2,1.3843992E1,3.01018E2,2.5464144E0,3.4187607E2,3.7016285E1,4.041438E3,4.4857134E3,2.2225579E3,5.141257E3,9.398623E0,1.5164366E2,1.11554115E2,4.16951E1,2.8413278E2,2.4694006E0,3.218046E2,9.022238E2,4.8063976E1,4.8908935E0,7.918372E2,2.0794151E2,6.490952E2,6.287591E1,4.3526093E2,1.9318157E3,3.5277036E3,2.3690247E3,3.8409927E2,3.1092386E1,2.613134E3,7.5711133E3,1.0655775E3,3.821617E1,1.5277646E1,8.303597E0,5.762414E2,1.041889E2,2.7056934E2,2.3242428E1,2.3938438E3,2.8590874E3,2.4078142E2,4.2650974E2,2.572114E1,1.3281857E0,9.337338E0,1.5098134E2,1.4629861E3,2.9766376E1],"tree_param":{"num_deleted":"0","num_feature":"30","num_nodes":"119","size_leaf_vector":"1"}},{"base_weights":[-4.825633E-11,6.808191E-1,-4.7076017E-1,5.606829E-1,7.592367E-1,-5.496578E-1,-2.7242884E-1,6.15902E-1,3.7455618E-1,5.847362E-1,7.665715E-1,-6.398666E-1,-4.730723E-1,-3.3468062E-1,-1.7924123E-2,4.6344942E-1,6.686828E-1,1.0583943E-1,4.3189174E-1,7.3949265E-1,4.245118E-1,8.095E-1,7.442232E-1,-5.971376E-1,-7.129084E-1,-4.5043683E-1,-6.8735397E-1,-5.652812E-1,-2.968744E-1,7.381474E-1,-3.1527217E-2,6.6782546E-1,3.619179E-1,7.4770904E-1,6.2288386E-1,3.9038926E-1,-1.7895666E-1,4.1488892E-1,8.539435E-1,7.4912E-1,-5.8681617E-4,4.8570168E-1,-2.7865362E-1,8.144767E-1,6.2167054E-1,7.5157124E-1,6.1237836E-1,-5.800926E-1,-7.7949476E-1,-6.3768953E-1,-7.655133E-1,-2.5717956E-1,-4.5830506E-1,-7.0396847E-1,7.4948E-2,-1.3651331E-1,-6.115647E-1,-3.2481125E-1,-7.718266E-2,-6.7363464E-4,8.680449E-1,2.195112E-1,-5.8632422E-2,-4.2004426E-6,7.274164E-4,-4.2753978E-4,3.8829623E-4,4.5709382E-4,7.8607927E-4,3.766839E-4,6.3387374E-4,4.4689322E-4,-8.658696E-4,-1.0940888E-4,-9.2796417E-4,5.592004E-4,3.807369E-4,9.040691E-4,3.473772E-4,9.172739E-4,6.897141E-4,4.9975794E-4,-6.8632886E-4,2.4872413E-4,-8.983972E-4,8.429658E-4,7.8942935E-4,6.9648074E-4,-8.31308E-4,7.554443E-4,4.943178E-4,4.3387656E-4,6.889585E-4,-6.900306E-4,-5.5151456E-4,-1.4127058E-4,-8.172816E-4,-4.8031806E-4,-6.817501E-4,-7.75943E-4,-2.7918466E-4,-3.194243E-4,4.943047E-4,-5.1652675E-4,-4.382073E-4,-7.192589E-4,-2.7256933E-4,4.2406222E-4,-5.47291E-4,1.06588166E-4,-4.1435013E-4,-6.682916E-4,-2.754123E-4,-2.2792768E-4,-4.060554E-4,-3.3449414E-4,6.816658E-5,9.599764E-4,-5.6350825E-4,-9.003058E-4,2.933997E-4,-4.4701E-5,-7.25544E-4],"categories":[],"categories_nodes":[],"categories_segments":[],"categories_sizes":[],"default_left":[0,0,0,0,0,0,0,0,0,0,0,0,0,0,0,0,0,0,0,0,0,0,0,0,0,0,0,0,0,0,0,0,0,0,0,0,0,0,0,0,0,0,0,0,0,0,0,0,0,0,0,0,0,0,0,0,0,0,0,0,0,0,0,0,0,0,0,0,0,0,0,0,0,0,0,0,0,0,0,0,0,0,0,0,0,0,0,0,0,0,0,0,0,0,0,0,0,0,0,0,0,0,0,0,0,0,0,0,0,0,0,0,0,0,0,0,0,0,0,0,0,0,0],"id":4,"left_children":[1,3,5,7,9,11,13,15,17,19,21,23,25,27,29,31,33,35,37,39,41,43,45,47,49,51,53,55,57,59,61,63,65,67,69,71,73,75,77,79,-1,81,83,85,87,89,91,93,95,97,99,101,103,105,107,109,111,113,115,-1,117,119,121,-1,-1,-1,-1,-1,-1,-1,-1,-1,-1,-1,-1,-1,-1,-1,-1,-1,-1,-1,-1,-1,-1,-1,-1,-1,-1,-1,-1,-1,-1,-1,-1,-1,-1,-1,-1,-1,-1,-1,-1,-1,-1,-1,-1,-1,-1,-1,-1,-1,-1,-1,-1,-1,-1,-1,-1,-1,-1,-1,-1],"loss_changes":[1.6251268E4,1.9485059E2,4.6893262E2,8.3947266E1,1.5601074E1,1.4785449E2,1.3519122E2,5.050293E1,2.8865082E1,1.2332031E1,1.0938477E1,3.029712E1,5.5965088E1,5.9605957E1,1.7282461E1,3.3525146E1,1.6503418E1,2.6917723E1,1.0741119E1,3.7350006E0,1.1017784E1,3.3330078E0,7.216797E0,1.8871582E1,1.3867676E1,1.5843018E1,1.4067871E1,1.9059357E1,3.614087E1,6.031254E0,1.1236184E1,2.1584717E1,2.2851456E1,1.8767517E1,7.808838E0,1.2172661E1,8.559383E0,7.121887E0,1.1823463E0,1.9312134E0,0E0,4.1821785E0,7.048841E0,2.1870117E0,1.2561783E1,7.1000977E0,5.4928894E0,1.7494263E1,1.263031E1,1.0067139E1,1.0586914E1,1.9472376E1,1.1573975E1,6.948242E0,5.555916E0,6.4788904E0,1.6412659E1,4.1054443E1,2.4935078E1,0E0,4.1777325E0,1.3581106E1,1.3806204E1,0E0,0E0,0E0,0E0,0E0,0E0,0E0,0E0,0E0,0E0,0E0,0E0,0E0,0E0,0E0,0E0,0E0,0E0,0E0,0E0,0E0,0E0,0E0,0E0,0E0,0E0,0E0,0E0,0E0,0E0,0E0,0E0,0E0,0E0,0E0,0E0,0E0,0E0,0E0,0E0,0E0,0E0,0E0,0E0,0E0,0E0,0E0,0E0,0E0,0E0,0E0,0E0,0E0,0E0,0E0,0E0,0E0,0E0,0E0,0E0],"parents":[2147483647,0,0,1,1,2,2,3,3,4,4,5,5,6,6,7,7,8,8,9,9,10,10,11,11,12,12,13,13,14,14,15,15,16,16,17,17,18,18,19,19,20,20,21,21,22,22,23,23,24,24,25,25,26,26,27,27,28,28,29,29,30,30,31,31,32,32,33,33,34,34,35,35,36,36,37,37,38,38,39,39,41,41,42,42,43,43,44,44,45,45,46,46,47,47,48,48,49,49,50,50,51,51,52,52,53,53,54,54,55,55,56,56,57,57,58,58,60,60,61,61,62,62],"right_children":[2,4,6,8,10,12,14,16,18,20,22,24,26,28,30,32,34,36,38,40,42,44,46,48,50,52,54,56,58,60,62,64,66,68,70,72,74,76,78,80,-1,82,84,86,88,90,92,94,96,98,100,102,104,106,108,110,112,114,116,-1,118,120,122,-1,-1,-1,-1,-1,-1,-1,-1,-1,-1,-1,-1,-1,-1,-1,-1,-1,-1,-1,-1,-1,-1,-1,-1,-1,-1,-1,-1,-1,-1,-1,-1,-1,-1,-1,-1,-1,-1,-1,-1,-1,-1,-1,-1,-1,-1,-1,-1,-1,-1,-1,-1,-1,-1,-1,-1,-1,-1,-1,-1],"split_conditions":[2E0,3.7037516E-1,3.5235007E0,1.4370416E0,1E0,1.4769419E-1,3.7110248E-1,2.8648655E0,2.803563E0,1E0,3.9849007E-1,9.496009E-2,3.7069276E-1,1.1305654E-1,7.1428573E-1,1.7669739E0,1.8217017E-1,3E0,1E0,1E0,4E0,1E0,1E0,8E0,3E0,1E0,4.5510718E-1,1E0,4E0,1E0,1E0,8.56126E-1,5.7565303E0,7.6442614E-2,1E0,7E0,1E0,1.5345481E-1,1E0,2.3193905E-1,-5.8681617E-4,1E0,3.9849007E-1,1E0,1E0,1E0,1.12693E0,6.007191E-1,2.2745928E-1,1E0,1E0,5E0,2E0,1E0,5.7565303E0,3E0,4E0,4.156725E0,4.76141E-1,-6.7363464E-4,2.4163267E-1,1E0,4E0,-4.2004426E-6,7.274164E-4,-4.2753978E-4,3.8829623E-4,4.5709382E-4,7.8607927E-4,3.766839E-4,6.3387374E-4,4.4689322E-4,-8.658696E-4,-1.0940888E-4,-9.2796417E-4,5.592004E-4,3.807369E-4,9.040691E-4,3.473772E-4,9.172739E-4,6.897141E-4,4.9975794E-4,-6.8632886E-4,2.4872413E-4,-8.983972E-4,8.429658E-4,7.8942935E-4,6.9648074E-4,-8.31308E-4,7.554443E-4,4.943178E-4,4.3387656E-4,6.889585E-4,-6.900306E-4,-5.5151456E-4,-1.4127058E-4,-8.172816E-4,-4.8031806E-4,-6.817501E-4,-7.75943E-4,-2.7918466E-4,-3.194243E-4,4.943047E-4,-5.1652675E-4,-4.382073E-4,-7.192589E-4,-2.7256933E-4,4.2406222E-4,-5.47291E-4,1.06588166E-4,-4.1435013E-4,-6.682916E-4,-2.754123E-4,-2.2792768E-4,-4.060554E-4,-3.3449414E-4,6.816658E-5,9.599764E-4,-5.6350825E-4,-9.003058E-4,2.933997E-4,-4.4701E-5,-7.25544E-4],"split_indices":[0,3,4,7,23,6,3,4,4,15,6,6,6,6,7,4,3,14,22,29,14,28,20,13,0,23,6,23,9,23,15,7,18,6,23,13,20,3,28,6,0,29,6,15,27,29,7,7,17,26,24,0,13,29,18,13,14,4,5,0,17,26,9,0,0,0,0,0,0,0,0,0,0,0,0,0,0,0,0,0,0,0,0,0,0,0,0,0,0,0,0,0,0,0,0,0,0,0,0,0,0,0,0,0,0,0,0,0,0,0,0,0,0,0,0,0,0,0,0,0,0,0,0],"split_type":[0,0,0,0,0,0,0,0,0,0,0,0,0,0,0,0,0,0,0,0,0,0,0,0,0,0,0,0,0,0,0,0,0,0,0,0,0,0,0,0,0,0,0,0,0,0,0,0,0,0,0,0,0,0,0,0,0,0,0,0,0,0,0,0,0,0,0,0,0,0,0,0,0,0,0,0,0,0,0,0,0,0,0,0,0,0,0,0,0,0,0,0,0,0,0,0,0,0,0,0,0,0,0,0,0,0,0,0,0,0,0,0,0,0,0,0,0,0,0,0,0,0,0],"sum_hessian":[5.0703586E4,2.0727205E4,2.9976383E4,8.1892993E3,1.2537905E4,2.1444023E4,8.532359E3,6.313833E3,1.8754661E3,5.090048E2,1.20289E4,9.842891E3,1.1601133E4,6.855251E3,1.6771079E3,1.626273E3,4.68756E3,3.3029684E2,1.5451692E3,2.570814E2,2.519234E2,4.1061865E3,7.922714E3,6.2158384E3,3.6270525E3,1.0495546E4,1.1055867E3,9.636256E2,5.8916255E3,2.8699547E1,1.6484083E3,5.379131E2,1.08836E3,1.714267E3,2.9732932E3,1.650344E2,1.6526245E2,1.4872372E3,5.7931995E1,2.556608E2,1.4205899E0,2.3204036E2,1.988303E1,3.9969468E3,1.09239784E2,7.5000176E3,4.226961E2,5.6883296E3,5.2750867E2,1.4980864E3,2.128966E3,4.1191498E2,1.0083632E4,1.0820792E3,2.3507526E1,9.426922E1,8.693564E2,5.2265225E3,6.651033E2,2.0654507E0,2.6634096E1,1.599463E2,1.488462E3,4.3889267E1,4.940238E2,3.4698067E1,1.0536619E3,2.0144438E2,1.5128226E3,1.285579E2,2.8447354E3,1.5854752E2,6.486872E0,1.5226978E2,1.2992673E1,2.8166595E2,1.2055713E3,5.2001648E1,5.9303465E0,6.297202E1,1.9268878E2,2.2985727E2,2.1830964E0,1.1065437E1,8.817593E0,1.8547242E3,2.1422227E3,1.0438588E2,4.853908E0,7.38687E3,1.1314778E2,1.2890204E2,2.9379407E2,1.1688177E3,4.5195117E3,2.9750856E1,4.9775778E2,3.3028986E2,1.1677965E3,2.0836848E3,4.52813E1,3.8093726E2,3.0977728E1,2.5812546E3,7.5023765E3,1.0443944E3,3.7684715E1,1.5262704E1,8.2448225E0,5.0606205E1,4.3663017E1,7.4298676E2,1.2636962E2,2.3855544E3,2.8409678E3,2.3961392E2,4.2548938E2,2.5336456E1,1.2976398E0,9.208115E0,1.5073819E2,1.4590503E3,2.941176E1],"tree_param":{"num_deleted":"0","num_feature":"30","num_nodes":"123","size_leaf_vector":"1"}},{"base_weights":[1.3703007E-9,6.840409E-1,-4.6903133E-1,5.627612E-1,7.6337844E-1,-5.475676E-1,-2.727547E-1,6.1786383E-1,3.7760213E-1,5.8698845E-1,7.7081E-1,-6.375155E-1,-4.7135246E-1,-3.3442605E-1,-2.1132262E-2,4.639084E-1,6.7127424E-1,1.0454441E-1,4.3610874E-1,7.4249405E-1,4.266306E-1,8.143004E-1,7.4818856E-1,-7.6066494E-1,-6.121517E-1,-4.48874E-1,-6.860131E-1,-5.6274503E-1,-2.9714054E-1,7.3881984E-1,-3.4655098E-2,6.703909E-1,3.618023E-1,7.509141E-1,6.2524116E-1,3.8992366E-1,-1.7881331E-1,4.1920644E-1,8.5625386E-1,7.522242E-1,-5.8444415E-4,4.8933765E-1,-2.8506562E-1,8.19318E-1,6.252411E-1,7.5551724E-1,6.1679524E-1,-7.054694E-1,-8.374217E-1,-5.3757524E-1,-6.418602E-1,-2.5609457E-1,-4.5674187E-1,-7.0287883E-1,7.686038E-2,-4.6955696E-1,-7.787314E-1,-3.2471794E-1,-8.061538E-2,-6.687804E-4,8.6775285E-1,2.1248062E-1,-6.1350223E-2,-3.858664E-6,7.307141E-4,-4.2581846E-4,3.8846643E-4,4.5790934E-4,7.8983966E-4,3.767548E-4,6.363964E-4,4.4678227E-4,-8.647523E-4,-1.0942097E-4,-9.271882E-4,5.6278514E-4,3.852482E-4,9.063635E-4,3.5092302E-4,9.179136E-4,6.9351983E-4,5.0350145E-4,-6.8398844E-4,2.5779646E-4,-8.9987647E-4,8.476202E-4,7.9441804E-4,7.025993E-4,-8.329886E-4,7.594234E-4,4.970218E-4,4.3741803E-4,6.9384417E-4,-6.6706655E-4,-8.4915006E-4,-8.637443E-4,-5.5981276E-4,-3.2462043E-4,-5.858378E-4,-6.825303E-4,-5.8129587E-4,-3.1810236E-4,4.8934715E-4,-3.7942376E-4,-4.7159573E-4,-7.183003E-4,-2.7127404E-4,4.158261E-4,-5.3176575E-4,-5.4730603E-4,-4.6361605E-5,-8.233804E-4,-2.560683E-4,-2.292534E-4,-4.049355E-4,-3.3364375E-4,6.199568E-5,9.589512E-4,-5.5801315E-4,-8.9860754E-4,2.8502895E-4,-4.7586564E-5,-7.2478515E-4],"categories":[],"categories_nodes":[],"categories_segments":[],"categories_sizes":[],"default_left":[0,0,0,0,0,0,0,0,0,0,0,0,0,0,0,0,0,0,0,0,0,0,0,0,0,0,0,0,0,0,0,0,0,0,0,0,0,0,0,0,0,0,0,0,0,0,0,0,0,0,0,0,0,0,0,0,0,0,0,0,0,0,0,0,0,0,0,0,0,0,0,0,0,0,0,0,0,0,0,0,0,0,0,0,0,0,0,0,0,0,0,0,0,0,0,0,0,0,0,0,0,0,0,0,0,0,0,0,0,0,0,0,0,0,0,0,0,0,0,0,0,0,0],"id":5,"left_children":[1,3,5,7,9,11,13,15,17,19,21,23,25,27,29,31,33,35,37,39,41,43,45,47,49,51,53,55,57,59,61,63,65,67,69,71,73,75,77,79,-1,81,83,85,87,89,91,93,95,97,99,101,103,105,107,109,111,113,115,-1,117,119,121,-1,-1,-1,-1,-1,-1,-1,-1,-1,-1,-1,-1,-1,-1,-1,-1,-1,-1,-1,-1,-1,-1,-1,-1,-1,-1,-1,-1,-1,-1,-1,-1,-1,-1,-1,-1,-1,-1,-1,-1,-1,-1,-1,-1,-1,-1,-1,-1,-1,-1,-1,-1,-1,-1,-1,-1,-1,-1,-1,-1],"loss_changes":[1.6061297E4,1.955039E2,4.5763525E2,8.196753E1,1.5681152E1,1.451001E2,1.3172449E2,5.073047E1,2.951471E1,1.21953125E1,1.1005371E1,2.9912842E1,5.511035E1,5.7873535E1,1.720944E1,3.353357E1,1.6417725E1,2.6578533E1,1.0460175E1,3.7111206E0,1.1268692E1,3.3093262E0,7.0253906E0,6.428711E0,1.7533691E1,1.5656494E1,1.4036957E1,1.887564E1,3.4982483E1,5.894025E0,1.0857947E1,2.1515305E1,2.272351E1,1.8825378E1,7.868164E0,1.2060347E1,8.476444E0,6.933655E0,1.1496162E0,1.8142853E0,0E0,4.1592216E0,7.182467E0,2.0898438E0,1.2810383E1,7.057617E0,5.4516754E0,4.78656E0,4.541809E0,2.3500366E1,1.3804932E1,1.9109922E1,1.1294678E1,6.8829956E0,5.2566648E0,2.2031326E1,6.4778595E0,3.9730225E1,2.3969776E1,0E0,4.0792885E0,1.3191853E1,1.3519623E1,0E0,0E0,0E0,0E0,0E0,0E0,0E0,0E0,0E0,0E0,0E0,0E0,0E0,0E0,0E0,0E0,0E0,0E0,0E0,0E0,0E0,0E0,0E0,0E0,0E0,0E0,0E0,0E0,0E0,0E0,0E0,0E0,0E0,0E0,0E0,0E0,0E0,0E0,0E0,0E0,0E0,0E0,0E0,0E0,0E0,0E0,0E0,0E0,0E0,0E0,0E0,0E0,0E0,0E0,0E0,0E0,0E0,0E0,0E0,0E0],"parents":[2147483647,0,0,1,1,2,2,3,3,4,4,5,5,6,6,7,7,8,8,9,9,10,10,11,11,12,12,13,13,14,14,15,15,16,16,17,17,18,18,19,19,20,20,21,21,22,22,23,23,24,24,25,25,26,26,27,27,28,28,29,29,30,30,31,31,32,32,33,33,34,34,35,35,36,36,37,37,38,38,39,39,41,41,42,42,43,43,44,44,45,45,46,46,47,47,48,48,49,49,50,50,51,51,52,52,53,53,54,54,55,55,56,56,57,57,58,58,60,60,61,61,62,62],"right_children":[2,4,6,8,10,12,14,16,18,20,22,24,26,28,30,32,34,36,38,40,42,44,46,48,50,52,54,56,58,60,62,64,66,68,70,72,74,76,78,80,-1,82,84,86,88,90,92,94,96,98,100,102,104,106,108,110,112,114,116,-1,118,120,122,-1,-1,-1,-1,-1,-1,-1,-1,-1,-1,-1,-1,-1,-1,-1,-1,-1,-1,-1,-1,-1,-1,-1,-1,-1,-1,-1,-1,-1,-1,-1,-1,-1,-1,-1,-1,-1,-1,-1,-1,-1,-1,-1,-1,-1,-1,-1,-1,-1,-1,-1,-1,-1,-1,-1,-1,-1,-1,-1,-1],"split_conditions":[2E0,3.7037516E-1,3.5235007E0,1.4370416E0,1E0,1.4769419E-1,3.7110248E-1,2.8648655E0,2.803563E0,1E0,3.9849007E-1,4E0,3.7069276E-1,1.1305654E-1,7.1428573E-1,1.7669739E0,1.8217017E-1,3E0,1E0,1E0,4E0,1E0,1E0,3E0,3E0,1E0,4.5510718E-1,3E0,4E0,1E0,1E0,8.56126E-1,5.7565303E0,7.6442614E-2,1E0,7E0,1E0,1.5345481E-1,1E0,2.3193905E-1,-5.8444415E-4,1E0,3.9849007E-1,1E0,1E0,1E0,1.12693E0,1E0,1E0,9.5033966E-2,1E0,5E0,8.580605E-1,1E0,5.7565303E0,4E0,1E0,4.156725E0,4.76141E-1,-6.687804E-4,2.4163267E-1,1E0,4E0,-3.858664E-6,7.307141E-4,-4.2581846E-4,3.8846643E-4,4.5790934E-4,7.8983966E-4,3.767548E-4,6.363964E-4,4.4678227E-4,-8.647523E-4,-1.0942097E-4,-9.271882E-4,5.6278514E-4,3.852482E-4,9.063635E-4,3.5092302E-4,9.179136E-4,6.9351983E-4,5.0350145E-4,-6.8398844E-4,2.5779646E-4,-8.9987647E-4,8.476202E-4,7.9441804E-4,7.025993E-4,-8.329886E-4,7.594234E-4,4.970218E-4,4.3741803E-4,6.9384417E-4,-6.6706655E-4,-8.4915006E-4,-8.637443E-4,-5.5981276E-4,-3.2462043E-4,-5.858378E-4,-6.825303E-4,-5.8129587E-4,-3.1810236E-4,4.8934715E-4,-3.7942376E-4,-4.7159573E-4,-7.183003E-4,-2.7127404E-4,4.158261E-4,-5.3176575E-4,-5.4730603E-4,-4.6361605E-5,-8.233804E-4,-2.560683E-4,-2.292534E-4,-4.049355E-4,-3.3364375E-4,6.199568E-5,9.589512E-4,-5.5801315E-4,-8.9860754E-4,2.8502895E-4,-4.7586564E-5,-7.2478515E-4],"split_indices":[0,3,4,7,23,6,3,4,4,15,6,8,6,6,7,4,3,14,22,29,14,28,20,9,0,23,6,0,9,23,15,7,18,6,23,13,20,3,28,6,0,29,6,15,27,29,7,15,20,3,19,0,7,29,18,14,27,4,5,0,17,26,9,0,0,0,0,0,0,0,0,0,0,0,0,0,0,0,0,0,0,0,0,0,0,0,0,0,0,0,0,0,0,0,0,0,0,0,0,0,0,0,0,0,0,0,0,0,0,0,0,0,0,0,0,0,0,0,0,0,0,0,0],"split_type":[0,0,0,0,0,0,0,0,0,0,0,0,0,0,0,0,0,0,0,0,0,0,0,0,0,0,0,0,0,0,0,0,0,0,0,0,0,0,0,0,0,0,0,0,0,0,0,0,0,0,0,0,0,0,0,0,0,0,0,0,0,0,0,0,0,0,0,0,0,0,0,0,0,0,0,0,0,0,0,0,0,0,0,0,0,0,0,0,0,0,0,0,0,0,0,0,0,0,0,0,0,0,0,0,0,0,0,0,0,0,0,0,0,0,0,0,0,0,0,0,0,0,0],"sum_hessian":[5.005867E4,2.0362012E4,2.9696658E4,8.0557075E3,1.2306305E4,2.1208646E4,8.488013E3,6.206376E3,1.8493318E3,5.0075638E2,1.1805548E4,9.724538E3,1.1484107E4,6.816898E3,1.671115E3,1.6010463E3,4.6053296E3,3.26818E2,1.5225138E3,2.5238148E2,2.483749E2,4.027523E3,7.778025E3,1.6558507E3,8.0686875E3,1.0398325E4,1.0857823E3,9.549766E2,5.8619214E3,2.8278765E1,1.6428363E3,5.279141E2,1.0731321E3,1.6812896E3,2.92404E3,1.6264081E2,1.641772E2,1.4655529E3,5.6960945E1,2.5097426E2,1.4072218E0,2.2854996E2,1.9824947E1,3.92015E3,1.07373024E2,7.362612E3,4.1541284E2,9.691378E2,6.867129E2,2.3040337E3,5.764654E3,4.0905942E2,9.989266E3,1.0623739E3,2.3408436E1,6.6935504E2,2.8562158E2,5.1992295E3,6.626922E2,2.0215752E0,2.6257189E1,1.5947778E2,1.4833585E3,4.3429237E1,4.844849E2,3.464999E1,1.038482E3,1.9866203E2,1.4826276E3,1.2712227E2,2.7969177E3,1.5620587E2,6.4349313E0,1.5129474E2,1.2882449E1,2.773441E2,1.1882087E3,5.1100155E1,5.860791E0,6.1829205E1,1.8914505E2,2.2638799E2,2.161965E0,1.0836919E1,8.988029E0,1.8192694E3,2.1008806E3,1.0245598E2,4.9170423E0,7.2511025E3,1.1150935E2,1.2682629E2,2.8858655E2,7.6919135E2,1.9994646E2,6.253103E2,6.1402596E1,4.2712057E2,1.8769131E3,3.4426108E3,2.322043E3,3.7817508E2,3.0884335E1,1.6140817E3,8.375184E3,1.0250829E3,3.7290993E1,1.5238403E1,8.170034E0,5.6522015E2,1.0413492E2,2.6261234E2,2.3009245E1,2.375762E3,2.8234673E3,2.383893E2,4.243029E2,2.4986364E1,1.2708248E0,9.076928E0,1.5040085E2,1.45426E3,2.9098442E1],"tree_param":{"num_deleted":"0","num_feature":"30","num_nodes":"123","size_leaf_vector":"1"}},{"base_weights":[4.3461773E-10,6.8689436E-1,-4.674166E-1,5.646054E-1,7.670587E-1,-5.4564995E-1,-2.729005E-1,6.1957353E-1,3.8034812E-1,5.9110767E-1,7.7447176E-1,-6.3535684E-1,-4.6975702E-1,-3.3407286E-1,-2.3763819E-2,4.6417937E-1,6.735832E-1,1.0339414E-1,4.3991688E-1,7.454367E-1,4.3203077E-1,8.1825924E-1,7.517055E-1,-7.5879794E-1,-6.100347E-1,-4.4740692E-1,-6.8482596E-1,-5.6015813E-1,-2.9732478E-1,7.395767E-1,-3.7217032E-2,6.723081E-1,3.6168128E-1,7.5384337E-1,6.272787E-1,3.894395E-1,-1.7869861E-1,4.2310923E-1,8.581221E-1,7.552789E-1,-5.8246247E-4,4.9506268E-1,-2.8168136E-1,8.233254E-1,6.276746E-1,7.590062E-1,6.2087995E-1,-7.0360893E-1,-8.3584493E-1,-5.3629446E-1,-6.393632E-1,-2.5579956E-1,-4.5524547E-1,-7.018851E-1,7.660291E-2,-4.6825096E-1,-7.754421E-1,-3.2463107E-1,-8.307215E-2,-6.639883E-4,8.6746484E-1,2.0643048E-1,-6.3542E-2,-5.235649E-6,7.334987E-4,-4.2420247E-4,3.885657E-4,4.5891968E-4,7.932383E-4,3.7704408E-4,6.385657E-4,4.4665404E-4,-8.6374476E-4,-1.0942844E-4,-9.264183E-4,5.6654273E-4,3.8921743E-4,9.0822857E-4,3.5391495E-4,9.2053367E-4,6.966705E-4,5.0945923E-4,-6.828218E-4,2.596604E-4,-8.9799776E-4,8.517752E-4,7.9829514E-4,7.075438E-4,-8.347399E-4,7.629373E-4,4.9969024E-4,4.408378E-4,6.982942E-4,-6.654464E-4,-8.473725E-4,-8.623157E-4,-5.593942E-4,-3.2351716E-4,-5.847961E-4,-6.7992427E-4,-5.791586E-4,-3.1760609E-4,4.839167E-4,-5.127709E-4,-4.3546635E-4,-7.174216E-4,-2.7004504E-4,4.0826903E-4,-5.2144803E-4,-5.450777E-4,-5.27255E-5,-8.203549E-4,-2.5870578E-4,-2.3039694E-4,-4.039432E-4,-3.326633E-4,5.7410267E-5,9.579788E-4,-5.529071E-4,-8.971688E-4,2.7797188E-4,-4.9895953E-5,-7.2431745E-4],"categories":[],"categories_nodes":[],"categories_segments":[],"categories_sizes":[],"default_left":[0,0,0,0,0,0,0,0,0,0,0,0,0,0,0,0,0,0,0,0,0,0,0,0,0,0,0,0,0,0,0,0,0,0,0,0,0,0,0,0,0,0,0,0,0,0,0,0,0,0,0,0,0,0,0,0,0,0,0,0,0,0,0,0,0,0,0,0,0,0,0,0,0,0,0,0,0,0,0,0,0,0,0,0,0,0,0,0,0,0,0,0,0,0,0,0,0,0,0,0,0,0,0,0,0,0,0,0,0,0,0,0,0,0,0,0,0,0,0,0,0,0,0],"id":6,"left_children":[1,3,5,7,9,11,13,15,17,19,21,23,25,27,29,31,33,35,37,39,41,43,45,47,49,51,53,55,57,59,61,63,65,67,69,71,73,75,77,79,-1,81,83,85,87,89,91,93,95,97,99,101,103,105,107,109,111,113,115,-1,117,119,121,-1,-1,-1,-1,-1,-1,-1,-1,-1,-1,-1,-1,-1,-1,-1,-1,-1,-1,-1,-1,-1,-1,-1,-1,-1,-1,-1,-1,-1,-1,-1,-1,-1,-1,-1,-1,-1,-1,-1,-1,-1,-1,-1,-1,-1,-1,-1,-1,-1,-1,-1,-1,-1,-1,-1,-1,-1,-1,-1,-1],"loss_changes":[1.587999E4,1.959043E2,4.4773975E2,8.0123535E1,1.5318359E1,1.4259863E2,1.286828E2,5.0963135E1,3.0073944E1,1.1786026E1,1.0951172E1,2.9595459E1,5.4365234E1,5.6158203E1,1.7133192E1,3.344101E1,1.636792E1,2.6251728E1,1.0195892E1,3.693634E0,1.1172039E1,3.3044434E0,6.8310547E0,6.3546753E0,1.6925537E1,1.5362061E1,1.3937012E1,1.836908E1,3.4102722E1,5.762784E0,1.0517987E1,2.1556747E1,2.2563248E1,1.8840576E1,7.89209E0,1.1959822E1,8.395567E0,6.8094177E0,1.1203232E0,1.7563782E0,0E0,4.1752167E0,7.085569E0,2.0629883E0,1.3051857E1,6.9970703E0,5.4014435E0,4.6901245E0,4.465332E0,2.3322205E1,1.3543213E1,1.8776262E1,1.10407715E1,6.820801E0,5.0374274E0,2.123259E1,6.3260803E0,3.857605E1,2.318866E1,0E0,3.9901447E0,1.2876892E1,1.3298727E1,0E0,0E0,0E0,0E0,0E0,0E0,0E0,0E0,0E0,0E0,0E0,0E0,0E0,0E0,0E0,0E0,0E0,0E0,0E0,0E0,0E0,0E0,0E0,0E0,0E0,0E0,0E0,0E0,0E0,0E0,0E0,0E0,0E0,0E0,0E0,0E0,0E0,0E0,0E0,0E0,0E0,0E0,0E0,0E0,0E0,0E0,0E0,0E0,0E0,0E0,0E0,0E0,0E0,0E0,0E0,0E0,0E0,0E0,0E0,0E0],"parents":[2147483647,0,0,1,1,2,2,3,3,4,4,5,5,6,6,7,7,8,8,9,9,10,10,11,11,12,12,13,13,14,14,15,15,16,16,17,17,18,18,19,19,20,20,21,21,22,22,23,23,24,24,25,25,26,26,27,27,28,28,29,29,30,30,31,31,32,32,33,33,34,34,35,35,36,36,37,37,38,38,39,39,41,41,42,42,43,43,44,44,45,45,46,46,47,47,48,48,49,49,50,50,51,51,52,52,53,53,54,54,55,55,56,56,57,57,58,58,60,60,61,61,62,62],"right_children":[2,4,6,8,10,12,14,16,18,20,22,24,26,28,30,32,34,36,38,40,42,44,46,48,50,52,54,56,58,60,62,64,66,68,70,72,74,76,78,80,-1,82,84,86,88,90,92,94,96,98,100,102,104,106,108,110,112,114,116,-1,118,120,122,-1,-1,-1,-1,-1,-1,-1,-1,-1,-1,-1,-1,-1,-1,-1,-1,-1,-1,-1,-1,-1,-1,-1,-1,-1,-1,-1,-1,-1,-1,-1,-1,-1,-1,-1,-1,-1,-1,-1,-1,-1,-1,-1,-1,-1,-1,-1,-1,-1,-1,-1,-1,-1,-1,-1,-1,-1,-1,-1,-1],"split_conditions":[2E0,3.7037516E-1,3.5235007E0,1.4370416E0,1E0,1.4769419E-1,3.7110248E-1,2.8648655E0,2.803563E0,1E0,3.9849007E-1,4E0,3.7069276E-1,1.1305654E-1,7.1428573E-1,1.7669739E0,1.8217017E-1,3E0,1E0,1E0,4E0,1E0,1E0,3E0,3E0,1E0,4.5510718E-1,3E0,4E0,1E0,1E0,8.56126E-1,5.7565303E0,7.6442614E-2,1E0,7E0,1E0,1.5345481E-1,1E0,2.3193905E-1,-5.8246247E-4,1E0,3.9849007E-1,1E0,1E0,1E0,1.12693E0,1E0,1E0,9.5033966E-2,1E0,5E0,2E0,1E0,5.7565303E0,4E0,1E0,4.156725E0,4.76141E-1,-6.639883E-4,2.4163267E-1,1E0,4E0,-5.235649E-6,7.334987E-4,-4.2420247E-4,3.885657E-4,4.5891968E-4,7.932383E-4,3.7704408E-4,6.385657E-4,4.4665404E-4,-8.6374476E-4,-1.0942844E-4,-9.264183E-4,5.6654273E-4,3.8921743E-4,9.0822857E-4,3.5391495E-4,9.2053367E-4,6.966705E-4,5.0945923E-4,-6.828218E-4,2.596604E-4,-8.9799776E-4,8.517752E-4,7.9829514E-4,7.075438E-4,-8.347399E-4,7.629373E-4,4.9969024E-4,4.408378E-4,6.982942E-4,-6.654464E-4,-8.473725E-4,-8.623157E-4,-5.593942E-4,-3.2351716E-4,-5.847961E-4,-6.7992427E-4,-5.791586E-4,-3.1760609E-4,4.839167E-4,-5.127709E-4,-4.3546635E-4,-7.174216E-4,-2.7004504E-4,4.0826903E-4,-5.2144803E-4,-5.450777E-4,-5.27255E-5,-8.203549E-4,-2.5870578E-4,-2.3039694E-4,-4.039432E-4,-3.326633E-4,5.7410267E-5,9.579788E-4,-5.529071E-4,-8.971688E-4,2.7797188E-4,-4.9895953E-5,-7.2431745E-4],"split_indices":[0,3,4,7,23,6,3,4,4,15,6,8,6,6,7,4,3,14,22,29,14,28,20,9,0,23,6,0,9,23,15,7,18,6,23,13,20,3,28,6,0,29,6,15,27,29,7,15,20,3,19,0,13,29,18,14,27,4,5,0,17,26,9,0,0,0,0,0,0,0,0,0,0,0,0,0,0,0,0,0,0,0,0,0,0,0,0,0,0,0,0,0,0,0,0,0,0,0,0,0,0,0,0,0,0,0,0,0,0,0,0,0,0,0,0,0,0,0,0,0,0,0,0],"split_type":[0,0,0,0,0,0,0,0,0,0,0,0,0,0,0,0,0,0,0,0,0,0,0,0,0,0,0,0,0,0,0,0,0,0,0,0,0,0,0,0,0,0,0,0,0,0,0,0,0,0,0,0,0,0,0,0,0,0,0,0,0,0,0,0,0,0,0,0,0,0,0,0,0,0,0,0,0,0,0,0,0,0,0,0,0,0,0,0,0,0,0,0,0,0,0,0,0,0,0,0,0,0,0,0,0,0,0,0,0,0,0,0,0,0,0,0,0,0,0,0,0,0,0],"sum_hessian":[4.9458227E4,2.0026992E4,2.9431232E4,7.933163E3,1.209383E4,2.098812E4,8.443114E3,6.1084985E3,1.8246643E3,4.9219724E2,1.1601633E4,9.615291E3,1.1372828E4,6.778418E3,1.6646959E3,1.5779858E3,4.5305127E3,3.2347275E2,1.5011917E3,2.4795586E2,2.442414E2,3.9566511E3,7.6449814E3,1.6317633E3,7.983528E3,1.0305006E4,1.0678223E3,9.4573425E2,5.8326836E3,2.7895927E1,1.6368E3,5.188565E2,1.0591294E3,1.651927E3,2.8785857E3,1.6042223E2,1.6305054E2,1.4451239E3,5.6067677E1,2.4655962E2,1.3962363E0,2.2470296E2,1.9538425E1,3.850964E3,1.0568705E2,7.236357E3,4.0862457E2,9.566461E2,6.751172E2,2.2772246E3,5.706303E3,4.063243E2,9.898682E3,1.0444994E3,2.3322954E1,6.650093E2,2.80725E2,5.1728887E3,6.597949E2,1.9794645E0,2.5916464E1,1.5893697E2,1.477863E3,4.305352E1,4.7580298E2,3.4544567E1,1.0245848E3,1.9614764E2,1.4557793E3,1.2572104E2,2.7528647E3,1.5403337E2,6.388858E0,1.5027512E2,1.2775427E1,2.7319983E2,1.1719241E3,5.027065E1,5.797026E0,6.070024E1,1.8585938E2,2.2255035E2,2.1526096E0,1.07099905E1,8.828434E0,1.7869122E3,2.064052E3,1.0070336E2,4.9836946E0,7.126384E3,1.0997276E2,1.2488175E2,2.8374283E2,7.6041895E2,1.9622717E2,6.141882E2,6.092901E1,4.2414874E2,1.8530758E3,3.403208E3,2.3030952E3,3.7551874E2,3.0805578E1,2.5262976E3,7.3723843E3,1.0075879E3,3.691148E1,1.5206881E1,8.116074E0,5.6097797E2,1.0403132E2,2.57736E2,2.298899E1,2.365839E3,2.8070496E3,2.3712811E2,4.2266684E2,2.4669905E1,1.2465585E0,8.973345E0,1.4996361E2,1.4490142E3,2.8848907E1],"tree_param":{"num_deleted":"0","num_feature":"30","num_nodes":"123","size_leaf_vector":"1"}},{"base_weights":[1.6824596E-9,6.895258E-1,-4.6585196E-1,5.663724E-1,7.7039295E-1,-5.438141E-1,-2.7285242E-1,6.2114674E-1,3.8317242E-1,5.9472924E-1,7.777943E-1,-6.3329846E-1,-4.682296E-1,-3.3355597E-1,-2.5994755E-2,4.643858E-1,6.7571497E-1,1.0225802E-1,4.4382787E-1,7.4809045E-1,4.367218E-1,8.218704E-1,7.548866E-1,-5.905146E-1,-7.068357E-1,-4.4600686E-1,-6.83673E-1,-5.57724E-1,-2.972642E-1,7.402643E-1,-3.938437E-2,6.7394024E-1,3.6151242E-1,7.5646865E-1,6.29195E-1,3.8900638E-1,-1.7856874E-1,4.271164E-1,8.5987693E-1,7.5803155E-1,-5.804459E-4,5.000006E-1,-2.7846798E-1,8.2698524E-1,6.2973946E-1,7.6215744E-1,6.246402E-1,-5.7374746E-1,-7.714719E-1,-6.5284526E-1,-7.7981764E-1,-2.5551403E-1,-4.5381495E-1,-7.0091224E-1,7.64809E-2,-1.3564622E-1,-6.038807E-1,-3.243306E-1,-8.497567E-2,-6.592697E-4,8.6707616E-1,2.0119348E-1,-6.5389685E-2,-6.547067E-6,7.359229E-4,-4.2280104E-4,3.8864062E-4,4.598901E-4,7.96279E-4,3.7770494E-4,6.4058584E-4,4.4652447E-4,-8.626672E-4,-1.094451E-4,-9.256664E-4,5.705503E-4,3.9325727E-4,9.0986985E-4,3.5720618E-4,9.2270656E-4,6.9955055E-4,5.1467476E-4,-6.8263145E-4,2.6196844E-4,-8.962301E-4,8.5539086E-4,8.01983E-4,7.1219733E-4,-8.366147E-4,7.6610874E-4,5.022152E-4,4.4406994E-4,7.023337E-4,-6.827958E-4,-5.455679E-4,-1.4243858E-4,-8.101187E-4,-4.880993E-4,-6.8749866E-4,-4.330557E-4,-7.9629436E-4,-3.1714558E-4,4.7899023E-4,-3.7691038E-4,-4.6865252E-4,-7.1655883E-4,-2.6882478E-4,4.0169546E-4,-5.122454E-4,1.07251384E-4,-4.1240075E-4,-5.158857E-4,-8.1409357E-4,-2.3114779E-4,-4.0285627E-4,-3.3153952E-4,5.3657353E-5,9.570281E-4,-5.482975E-4,-8.9579105E-4,2.7185306E-4,-5.1858457E-5,-7.2366884E-4],"categories":[],"categories_nodes":[],"categories_segments":[],"categories_sizes":[],"default_left":[0,0,0,0,0,0,0,0,0,0,0,0,0,0,0,0,0,0,0,0,0,0,0,0,0,0,0,0,0,0,0,0,0,0,0,0,0,0,0,0,0,0,0,0,0,0,0,0,0,0,0,0,0,0,0,0,0,0,0,0,0,0,0,0,0,0,0,0,0,0,0,0,0,0,0,0,0,0,0,0,0,0,0,0,0,0,0,0,0,0,0,0,0,0,0,0,0,0,0,0,0,0,0,0,0,0,0,0,0,0,0,0,0,0,0,0,0,0,0,0,0,0,0],"id":7,"left_children":[1,3,5,7,9,11,13,15,17,19,21,23,25,27,29,31,33,35,37,39,41,43,45,47,49,51,53,55,57,59,61,63,65,67,69,71,73,75,77,79,-1,81,83,85,87,89,91,93,95,97,99,101,103,105,107,109,111,113,115,-1,117,119,121,-1,-1,-1,-1,-1,-1,-1,-1,-1,-1,-1,-1,-1,-1,-1,-1,-1,-1,-1,-1,-1,-1,-1,-1,-1,-1,-1,-1,-1,-1,-1,-1,-1,-1,-1,-1,-1,-1,-1,-1,-1,-1,-1,-1,-1,-1,-1,-1,-1,-1,-1,-1,-1,-1,-1,-1,-1,-1,-1,-1],"loss_changes":[1.5707975E4,1.9592871E2,4.3897705E2,7.822339E1,1.5008301E1,1.4029346E2,1.2585162E2,5.116284E1,3.0664215E1,1.1434006E1,1.0904785E1,2.9518799E1,5.366333E1,5.467694E1,1.7048311E1,3.3322876E1,1.6285034E1,2.5946804E1,9.936523E0,3.6742249E0,1.1066311E1,3.3046875E0,6.648926E0,1.7827393E1,1.3261108E1,1.5086426E1,1.3841003E1,1.8195068E1,3.332184E1,5.6366014E0,1.0218833E1,2.1580688E1,2.2431229E1,1.8829956E1,7.8847656E0,1.185483E1,8.318289E0,6.70459E0,1.0883026E0,1.6995239E0,0E0,4.207058E0,7.0017214E0,2.0043945E0,1.330735E1,6.929199E0,5.3463287E0,1.657373E1,1.2227295E1,1.1166992E1,8.115906E0,1.8473951E1,1.1025635E1,6.7633057E0,4.845451E0,6.3477244E0,1.5217773E1,3.757141E1,2.2498535E1,0E0,3.9112682E0,1.2597134E1,1.308196E1,0E0,0E0,0E0,0E0,0E0,0E0,0E0,0E0,0E0,0E0,0E0,0E0,0E0,0E0,0E0,0E0,0E0,0E0,0E0,0E0,0E0,0E0,0E0,0E0,0E0,0E0,0E0,0E0,0E0,0E0,0E0,0E0,0E0,0E0,0E0,0E0,0E0,0E0,0E0,0E0,0E0,0E0,0E0,0E0,0E0,0E0,0E0,0E0,0E0,0E0,0E0,0E0,0E0,0E0,0E0,0E0,0E0,0E0,0E0,0E0],"parents":[2147483647,0,0,1,1,2,2,3,3,4,4,5,5,6,6,7,7,8,8,9,9,10,10,11,11,12,12,13,13,14,14,15,15,16,16,17,17,18,18,19,19,20,20,21,21,22,22,23,23,24,24,25,25,26,26,27,27,28,28,29,29,30,30,31,31,32,32,33,33,34,34,35,35,36,36,37,37,38,38,39,39,41,41,42,42,43,43,44,44,45,45,46,46,47,47,48,48,49,49,50,50,51,51,52,52,53,53,54,54,55,55,56,56,57,57,58,58,60,60,61,61,62,62],"right_children":[2,4,6,8,10,12,14,16,18,20,22,24,26,28,30,32,34,36,38,40,42,44,46,48,50,52,54,56,58,60,62,64,66,68,70,72,74,76,78,80,-1,82,84,86,88,90,92,94,96,98,100,102,104,106,108,110,112,114,116,-1,118,120,122,-1,-1,-1,-1,-1,-1,-1,-1,-1,-1,-1,-1,-1,-1,-1,-1,-1,-1,-1,-1,-1,-1,-1,-1,-1,-1,-1,-1,-1,-1,-1,-1,-1,-1,-1,-1,-1,-1,-1,-1,-1,-1,-1,-1,-1,-1,-1,-1,-1,-1,-1,-1,-1,-1,-1,-1,-1,-1,-1,-1],"split_conditions":[2E0,3.7037516E-1,3.5235007E0,1.4370416E0,1E0,1.4769419E-1,3.7110248E-1,2.8648655E0,2.803563E0,1E0,3.9849007E-1,9.496009E-2,3.7069276E-1,1.1305654E-1,7.1428573E-1,1.7669739E0,1.8217017E-1,3E0,1E0,1E0,4E0,1E0,1E0,8E0,3E0,1E0,4.5510718E-1,1E0,4E0,1E0,1E0,8.56126E-1,5.7565303E0,7.6442614E-2,1E0,7E0,1E0,1.5345481E-1,1E0,2.3193905E-1,-5.804459E-4,1E0,3.9849007E-1,1E0,1E0,1E0,1.12693E0,6.007191E-1,2.2745928E-1,1E0,1E0,5E0,8.580605E-1,1E0,5.7565303E0,3E0,3E0,4.156725E0,4.76141E-1,-6.592697E-4,2.4163267E-1,1E0,4E0,-6.547067E-6,7.359229E-4,-4.2280104E-4,3.8864062E-4,4.598901E-4,7.96279E-4,3.7770494E-4,6.4058584E-4,4.4652447E-4,-8.626672E-4,-1.094451E-4,-9.256664E-4,5.705503E-4,3.9325727E-4,9.0986985E-4,3.5720618E-4,9.2270656E-4,6.9955055E-4,5.1467476E-4,-6.8263145E-4,2.6196844E-4,-8.962301E-4,8.5539086E-4,8.01983E-4,7.1219733E-4,-8.366147E-4,7.6610874E-4,5.022152E-4,4.4406994E-4,7.023337E-4,-6.827958E-4,-5.455679E-4,-1.4243858E-4,-8.101187E-4,-4.880993E-4,-6.8749866E-4,-4.330557E-4,-7.9629436E-4,-3.1714558E-4,4.7899023E-4,-3.7691038E-4,-4.6865252E-4,-7.1655883E-4,-2.6882478E-4,4.0169546E-4,-5.122454E-4,1.07251384E-4,-4.1240075E-4,-5.158857E-4,-8.1409357E-4,-2.3114779E-4,-4.0285627E-4,-3.3153952E-4,5.3657353E-5,9.570281E-4,-5.482975E-4,-8.9579105E-4,2.7185306E-4,-5.1858457E-5,-7.2366884E-4],"split_indices":[0,3,4,7,23,6,3,4,4,15,6,6,6,6,7,4,3,14,22,29,14,28,20,13,9,23,6,23,9,23,15,7,18,6,23,13,20,3,28,6,0,29,6,15,27,29,7,7,17,26,23,0,7,29,18,13,0,4,5,0,17,26,9,0,0,0,0,0,0,0,0,0,0,0,0,0,0,0,0,0,0,0,0,0,0,0,0,0,0,0,0,0,0,0,0,0,0,0,0,0,0,0,0,0,0,0,0,0,0,0,0,0,0,0,0,0,0,0,0,0,0,0,0],"split_type":[0,0,0,0,0,0,0,0,0,0,0,0,0,0,0,0,0,0,0,0,0,0,0,0,0,0,0,0,0,0,0,0,0,0,0,0,0,0,0,0,0,0,0,0,0,0,0,0,0,0,0,0,0,0,0,0,0,0,0,0,0,0,0,0,0,0,0,0,0,0,0,0,0,0,0,0,0,0,0,0,0,0,0,0,0,0,0,0,0,0,0,0,0,0,0,0,0,0,0,0,0,0,0,0,0,0,0,0,0,0,0,0,0,0,0,0,0,0,0,0,0,0,0],"sum_hessian":[4.8899453E4,1.971622E4,2.9183232E4,7.818049E3,1.1898172E4,2.0785225E4,8.398008E3,6.0167354E3,1.8013136E3,4.8433374E2,1.1413839E4,9.514114E3,1.127111E4,6.740206E3,1.6578016E3,1.5560635E3,4.460672E3,3.203514E2,1.4809622E3,2.4388539E2,2.4044836E2,3.8914712E3,7.522367E3,6.020453E3,3.4936611E3,1.022E4,1.05111E3,9.371604E2,5.803046E3,2.7538618E1,1.6302631E3,5.1053854E2,1.0455249E3,1.6248479E3,2.835824E3,1.5831396E2,1.6203745E2,1.4257217E3,5.5240448E1,2.4250024E2,1.3851464E0,2.2117964E2,1.926872E1,3.7873413E3,1.04129944E2,7.1200483E3,4.0231894E2,5.5137324E3,5.0672058E2,2.0138246E3,1.4798365E3,4.0374036E2,9.81626E3,1.0278771E3,2.3232883E1,9.276988E1,8.443905E2,5.1463657E3,6.566801E2,1.9391191E0,2.5599499E1,1.583758E2,1.4718872E3,4.2695267E1,4.678433E2,3.4466465E1,1.0110585E3,1.9377985E2,1.4310681E3,1.243585E2,2.7114653E3,1.5197359E2,6.3403754E0,1.4936432E2,1.2673126E1,2.692549E2,1.1564668E3,4.9506718E1,5.7337303E0,5.9677704E1,1.8282254E2,2.1902676E2,2.1528835E0,1.0584782E1,8.683939E0,1.7574559E3,2.0298854E3,9.907305E1,5.0568895E0,7.0115234E3,1.0852508E2,1.2304983E2,2.792691E2,1.1274672E3,4.386265E3,2.9601276E1,4.7711932E2,3.5260175E2,1.6612229E3,6.836373E1,1.4114728E3,3.730097E2,3.0730665E1,1.5918605E3,8.224399E3,9.913214E2,3.655567E1,1.5170391E1,8.062492E0,4.9733246E1,4.3036636E1,5.976631E2,2.467274E2,2.3553376E3,2.7910278E3,2.3583952E2,4.2084058E2,2.4374264E1,1.225236E0,8.877393E0,1.494984E2,1.4432983E3,2.858888E1],"tree_param":{"num_deleted":"0","num_feature":"30","num_nodes":"123","size_leaf_vector":"1"}},{"base_weights":[1.3054696E-9,6.9194233E-1,-4.6433166E-1,5.67976E-1,7.734673E-1,-5.420524E-1,-2.7270126E-1,6.225882E-1,3.8567638E-1,5.9735376E-1,7.80896E-1,-6.3134944E-1,-4.6668762E-1,-3.3300403E-1,-2.7720436E-2,4.647211E-1,6.776308E-1,1.01242445E-1,4.4730622E-1,7.504416E-1,4.398778E-1,8.2527393E-1,7.578408E-1,-7.5559443E-1,-6.0602516E-1,-4.445665E-1,-6.825595E-1,-5.556476E-1,-2.970609E-1,7.4102336E-1,-4.105387E-2,6.7604357E-1,3.6138427E-1,7.587982E-1,6.3096E-1,3.885525E-1,-1.7846599E-1,4.30684E-1,8.612778E-1,7.6039606E-1,-5.7670905E-4,5.02786E-1,-2.7417535E-1,8.304315E-1,6.317892E-1,7.6508385E-1,6.281395E-1,-7.0033276E-1,-8.3324194E-1,-5.3263116E-1,-6.3504523E-1,-2.5482327E-1,-4.5235926E-1,-6.999936E-1,7.7944815E-2,-5.9021777E-1,-4.3588784E-3,-3.2386214E-1,-8.6960234E-2,-6.546207E-4,8.6671513E-1,1.9691823E-1,-6.677953E-2,-5.847713E-6,7.3855696E-4,-4.2129087E-4,3.8874877E-4,4.6059347E-4,7.990059E-4,3.785056E-4,6.4243714E-4,4.4638055E-4,-8.6169335E-4,-1.0945774E-4,-9.249196E-4,5.744309E-4,3.9678937E-4,9.111882E-4,3.599586E-4,9.227623E-4,7.025476E-4,5.177354E-4,-6.8327365E-4,2.7026766E-4,-8.9455623E-4,8.5881335E-4,8.0544036E-4,7.1656157E-4,-8.380192E-4,7.690591E-4,5.0425064E-4,4.4689214E-4,7.0617924E-4,-6.622997E-4,-8.445951E-4,-8.5986935E-4,-5.571921E-4,-3.1778912E-4,-5.8201054E-4,-6.754762E-4,-5.752123E-4,-3.1629513E-4,4.746742E-4,-3.7615793E-4,-4.6710458E-4,-7.1573775E-4,-2.676702E-4,3.9578715E-4,-5.0054025E-4,-6.486881E-4,-2.5716415E-4,1.2754637E-4,-8.6588744E-4,-2.3169203E-4,-4.016187E-4,-3.3068287E-4,4.9970316E-5,9.5612265E-4,-5.4394035E-4,-8.942704E-4,2.666977E-4,-5.3336375E-5,-7.230766E-4],"categories":[],"categories_nodes":[],"categories_segments":[],"categories_sizes":[],"default_left":[0,0,0,0,0,0,0,0,0,0,0,0,0,0,0,0,0,0,0,0,0,0,0,0,0,0,0,0,0,0,0,0,0,0,0,0,0,0,0,0,0,0,0,0,0,0,0,0,0,0,0,0,0,0,0,0,0,0,0,0,0,0,0,0,0,0,0,0,0,0,0,0,0,0,0,0,0,0,0,0,0,0,0,0,0,0,0,0,0,0,0,0,0,0,0,0,0,0,0,0,0,0,0,0,0,0,0,0,0,0,0,0,0,0,0,0,0,0,0,0,0,0,0],"id":8,"left_children":[1,3,5,7,9,11,13,15,17,19,21,23,25,27,29,31,33,35,37,39,41,43,45,47,49,51,53,55,57,59,61,63,65,67,69,71,73,75,77,79,-1,81,83,85,87,89,91,93,95,97,99,101,103,105,107,109,111,113,115,-1,117,119,121,-1,-1,-1,-1,-1,-1,-1,-1,-1,-1,-1,-1,-1,-1,-1,-1,-1,-1,-1,-1,-1,-1,-1,-1,-1,-1,-1,-1,-1,-1,-1,-1,-1,-1,-1,-1,-1,-1,-1,-1,-1,-1,-1,-1,-1,-1,-1,-1,-1,-1,-1,-1,-1,-1,-1,-1,-1,-1,-1,-1],"loss_changes":[1.5543553E4,1.9590332E2,4.3103662E2,7.653198E1,1.486377E1,1.3831396E2,1.2342999E2,5.123169E1,3.1161255E1,1.120549E1,1.0874023E1,2.9193604E1,5.305249E1,5.3492798E1,1.6959303E1,3.3315033E1,1.6175049E1,2.5651161E1,9.695374E0,3.625229E0,1.084166E1,3.2988281E0,6.4799805E0,6.2456665E0,1.6345947E1,1.4874268E1,1.37994995E1,1.7737762E1,3.2492065E1,5.5160275E0,9.9576435E0,2.1469055E1,2.231459E1,1.8816956E1,7.8616943E0,1.1760571E1,8.242747E0,6.634247E0,1.059967E0,1.6045685E0,0E0,4.2429733E0,6.9769154E0,1.953125E0,1.3517223E1,6.883789E0,5.306305E0,4.576599E0,4.3463135E0,2.342865E1,1.3178711E1,1.8186892E1,1.0764282E1,6.7070923E0,4.635247E0,1.6890564E1,6.4668846E0,3.661212E1,2.1867077E1,0E0,3.8383446E0,1.2324176E1,1.2901384E1,0E0,0E0,0E0,0E0,0E0,0E0,0E0,0E0,0E0,0E0,0E0,0E0,0E0,0E0,0E0,0E0,0E0,0E0,0E0,0E0,0E0,0E0,0E0,0E0,0E0,0E0,0E0,0E0,0E0,0E0,0E0,0E0,0E0,0E0,0E0,0E0,0E0,0E0,0E0,0E0,0E0,0E0,0E0,0E0,0E0,0E0,0E0,0E0,0E0,0E0,0E0,0E0,0E0,0E0,0E0,0E0,0E0,0E0,0E0,0E0],"parents":[2147483647,0,0,1,1,2,2,3,3,4,4,5,5,6,6,7,7,8,8,9,9,10,10,11,11,12,12,13,13,14,14,15,15,16,16,17,17,18,18,19,19,20,20,21,21,22,22,23,23,24,24,25,25,26,26,27,27,28,28,29,29,30,30,31,31,32,32,33,33,34,34,35,35,36,36,37,37,38,38,39,39,41,41,42,42,43,43,44,44,45,45,46,46,47,47,48,48,49,49,50,50,51,51,52,52,53,53,54,54,55,55,56,56,57,57,58,58,60,60,61,61,62,62],"right_children":[2,4,6,8,10,12,14,16,18,20,22,24,26,28,30,32,34,36,38,40,42,44,46,48,50,52,54,56,58,60,62,64,66,68,70,72,74,76,78,80,-1,82,84,86,88,90,92,94,96,98,100,102,104,106,108,110,112,114,116,-1,118,120,122,-1,-1,-1,-1,-1,-1,-1,-1,-1,-1,-1,-1,-1,-1,-1,-1,-1,-1,-1,-1,-1,-1,-1,-1,-1,-1,-1,-1,-1,-1,-1,-1,-1,-1,-1,-1,-1,-1,-1,-1,-1,-1,-1,-1,-1,-1,-1,-1,-1,-1,-1,-1,-1,-1,-1,-1,-1,-1,-1,-1],"split_conditions":[2E0,3.7037516E-1,3.5235007E0,1.4370416E0,1E0,1.4769419E-1,3.7110248E-1,2.8648655E0,2.803563E0,1E0,3.9849007E-1,4E0,3.7069276E-1,1.1305654E-1,7.1428573E-1,1.7669739E0,1.8217017E-1,3E0,1E0,1E0,4E0,1E0,1E0,3E0,3E0,1E0,4.5510718E-1,1E0,4E0,1E0,1E0,8.56126E-1,5.7565303E0,7.6442614E-2,1E0,7E0,1E0,1.5345481E-1,1E0,2.3193905E-1,-5.7670905E-4,1E0,3.9849007E-1,1E0,1E0,1E0,1.12693E0,1E0,1E0,9.5033966E-2,1E0,5E0,8.580605E-1,1E0,5.7565303E0,4E0,8E0,4.156725E0,4.76141E-1,-6.546207E-4,2.4163267E-1,1E0,4E0,-5.847713E-6,7.3855696E-4,-4.2129087E-4,3.8874877E-4,4.6059347E-4,7.990059E-4,3.785056E-4,6.4243714E-4,4.4638055E-4,-8.6169335E-4,-1.0945774E-4,-9.249196E-4,5.744309E-4,3.9678937E-4,9.111882E-4,3.599586E-4,9.227623E-4,7.025476E-4,5.177354E-4,-6.8327365E-4,2.7026766E-4,-8.9455623E-4,8.5881335E-4,8.0544036E-4,7.1656157E-4,-8.380192E-4,7.690591E-4,5.0425064E-4,4.4689214E-4,7.0617924E-4,-6.622997E-4,-8.445951E-4,-8.5986935E-4,-5.571921E-4,-3.1778912E-4,-5.8201054E-4,-6.754762E-4,-5.752123E-4,-3.1629513E-4,4.746742E-4,-3.7615793E-4,-4.6710458E-4,-7.1573775E-4,-2.676702E-4,3.9578715E-4,-5.0054025E-4,-6.486881E-4,-2.5716415E-4,1.2754637E-4,-8.6588744E-4,-2.3169203E-4,-4.016187E-4,-3.3068287E-4,4.9970316E-5,9.5612265E-4,-5.4394035E-4,-8.942704E-4,2.666977E-4,-5.3336375E-5,-7.230766E-4],"split_indices":[0,3,4,7,23,6,3,4,4,15,6,8,6,6,7,4,3,14,22,29,14,28,20,9,0,23,6,24,9,23,15,7,18,6,23,13,20,3,28,6,0,29,6,15,27,29,7,15,20,3,19,0,7,29,18,14,13,4,5,0,17,26,9,0,0,0,0,0,0,0,0,0,0,0,0,0,0,0,0,0,0,0,0,0,0,0,0,0,0,0,0,0,0,0,0,0,0,0,0,0,0,0,0,0,0,0,0,0,0,0,0,0,0,0,0,0,0,0,0,0,0,0,0],"split_type":[0,0,0,0,0,0,0,0,0,0,0,0,0,0,0,0,0,0,0,0,0,0,0,0,0,0,0,0,0,0,0,0,0,0,0,0,0,0,0,0,0,0,0,0,0,0,0,0,0,0,0,0,0,0,0,0,0,0,0,0,0,0,0,0,0,0,0,0,0,0,0,0,0,0,0,0,0,0,0,0,0,0,0,0,0,0,0,0,0,0,0,0,0,0,0,0,0,0,0,0,0,0,0,0,0,0,0,0,0,0,0,0,0,0,0,0,0,0,0,0,0,0,0],"sum_hessian":[4.8376465E4,1.9426621E4,2.8949844E4,7.7103223E3,1.1716299E4,2.0595123E4,8.354721E3,5.931104E3,1.7792181E3,4.7750284E2,1.1238796E4,9.422892E3,1.1172231E4,6.704121E3,1.6505995E3,1.535783E3,4.395321E3,3.1732816E2,1.46189E3,2.4021558E2,2.3728726E2,3.8306155E3,7.4081807E3,1.590552E3,7.83234E3,1.0136562E4,1.0356697E3,9.2985236E2,5.7742686E3,2.7210186E1,1.6233893E3,5.025443E2,1.0332386E3,1.5990599E3,2.796261E3,1.5634502E2,1.6098312E2,1.4074183E3,5.4471672E1,2.3885109E2,1.3644887E0,2.1834676E2,1.8940508E1,3.7279492E3,1.0266632E2,7.011719E3,3.964616E2,9.35077E2,6.5547504E2,2.2248564E3,5.6074834E3,4.0121512E2,9.735347E3,1.01253735E3,2.3132334E1,8.749175E2,5.4934853E1,5.1205327E3,6.53736E2,1.9004141E0,2.530977E1,1.577244E2,1.4656649E3,4.2278603E1,4.6026572E2,3.441821E1,9.988204E2,1.9146844E2,1.4075914E3,1.23073494E2,2.6731875E3,1.5004778E2,6.297243E0,1.4840958E2,1.2573556E1,2.6549792E2,1.1419204E3,4.8796055E1,5.6756144E0,5.881656E1,1.8003453E2,2.1618538E2,2.161375E0,1.0388216E1,8.552292E0,1.7299421E3,1.9980071E3,9.755239E1,5.11393E0,6.9045425E3,1.07176605E2,1.2135074E2,2.7511087E2,7.444123E2,1.9066473E2,5.9588214E2,5.9592865E1,4.17185E2,1.8076714E3,3.3401538E3,2.2673298E3,3.7055624E2,3.0658878E1,1.5827032E3,8.152643E3,9.7632654E2,3.621081E1,1.5133318E1,7.9990163E0,7.434509E2,1.314666E2,4.8379597E1,6.5552564E0,2.344919E3,2.7756135E3,2.3465634E2,4.190797E2,2.4104256E1,1.2055161E0,8.769775E0,1.4895462E2,1.4373053E3,2.8359554E1],"tree_param":{"num_deleted":"0","num_feature":"30","num_nodes":"123","size_leaf_vector":"1"}},{"base_weights":[1.237103E-9,6.9408923E-1,-4.6286973E-1,5.6942064E-1,7.7618927E-1,-5.4038775E-1,-2.7242607E-1,6.238506E-1,3.8803247E-1,5.995193E-1,7.83648E-1,-6.2948024E-1,-4.652681E-1,-3.323481E-1,-2.9215135E-2,4.6485853E-1,6.7936456E-1,1.0028226E-1,4.505868E-1,7.526109E-1,4.4229996E-1,8.283207E-1,7.604474E-1,-5.8672374E-1,-7.032197E-1,-4.4324604E-1,-6.8152034E-1,-5.533743E-1,-2.9673946E-1,7.4177545E-1,-4.2497866E-2,6.774044E-1,3.6122626E-1,7.6084876E-1,6.325694E-1,3.8811225E-1,-1.7836814E-1,4.3405002E-1,8.6249644E-1,7.626459E-1,-5.747672E-4,5.050762E-1,-2.7214766E-1,8.3352304E-1,6.334229E-1,7.6765937E-1,6.3132805E-1,-5.7012033E-1,-7.6683015E-1,-6.4932466E-1,-7.764696E-1,-2.5451884E-1,-4.5101163E-1,-6.9910336E-1,7.7677086E-2,-4.62628E-1,-7.690995E-1,-3.2335946E-1,-8.802671E-2,-6.500326E-4,8.663254E-1,1.9302517E-1,-6.7963235E-2,-7.1200293E-6,7.4062106E-4,-4.1996973E-4,3.8879408E-4,4.614699E-4,8.013792E-4,3.7915714E-4,6.4412784E-4,4.4623046E-4,-8.607342E-4,-1.0947289E-4,-9.24183E-4,5.7806063E-4,4.0012764E-4,9.1229676E-4,3.6259452E-4,9.241827E-4,7.0495676E-4,5.203448E-4,-6.846404E-4,2.7394074E-4,-8.929915E-4,8.61773E-4,8.0863276E-4,7.2058063E-4,-8.395719E-4,7.716494E-4,5.064249E-4,4.496725E-4,7.095706E-4,-6.7834446E-4,-5.422782E-4,-1.4500297E-4,-8.059202E-4,-4.8603571E-4,-6.8361E-4,-4.3030863E-4,-7.9307996E-4,-3.1584193E-4,4.7047413E-4,-3.753951E-4,-4.6568285E-4,-7.1493816E-4,-2.6654938E-4,3.9039203E-4,-4.932979E-4,-5.383473E-4,-5.738696E-5,-8.147902E-4,-2.4955525E-4,-2.3191808E-4,-4.005432E-4,-3.2930932E-4,4.7446567E-5,9.55243E-4,-5.398781E-4,-8.929993E-4,2.6215395E-4,-5.4592972E-5,-7.2254264E-4],"categories":[],"categories_nodes":[],"categories_segments":[],"categories_sizes":[],"default_left":[0,0,0,0,0,0,0,0,0,0,0,0,0,0,0,0,0,0,0,0,0,0,0,0,0,0,0,0,0,0,0,0,0,0,0,0,0,0,0,0,0,0,0,0,0,0,0,0,0,0,0,0,0,0,0,0,0,0,0,0,0,0,0,0,0,0,0,0,0,0,0,0,0,0,0,0,0,0,0,0,0,0,0,0,0,0,0,0,0,0,0,0,0,0,0,0,0,0,0,0,0,0,0,0,0,0,0,0,0,0,0,0,0,0,0,0,0,0,0,0,0,0,0],"id":9,"left_children":[1,3,5,7,9,11,13,15,17,19,21,23,25,27,29,31,33,35,37,39,41,43,45,47,49,51,53,55,57,59,61,63,65,67,69,71,73,75,77,79,-1,81,83,85,87,89,91,93,95,97,99,101,103,105,107,109,111,113,115,-1,117,119,121,-1,-1,-1,-1,-1,-1,-1,-1,-1,-1,-1,-1,-1,-1,-1,-1,-1,-1,-1,-1,-1,-1,-1,-1,-1,-1,-1,-1,-1,-1,-1,-1,-1,-1,-1,-1,-1,-1,-1,-1,-1,-1,-1,-1,-1,-1,-1,-1,-1,-1,-1,-1,-1,-1,-1,-1,-1,-1,-1,-1],"loss_changes":[1.5384463E4,1.9564551E2,4.2395898E2,7.4897705E1,1.4747559E1,1.3634619E2,1.2113666E2,5.1338867E1,3.1621979E1,1.1029068E1,1.08515625E1,2.902417E1,5.2467285E1,5.232672E1,1.687069E1,3.318631E1,1.6050537E1,2.536909E1,9.467407E0,3.605133E0,1.0691402E1,3.2995605E0,6.315918E0,1.7253784E1,1.300415E1,1.462793E1,1.3700256E1,1.7737244E1,3.1896667E1,5.4000864E0,9.71382E0,2.1482925E1,2.218222E1,1.8761292E1,7.8398438E0,1.1669016E1,8.169607E0,6.5644226E0,1.0323105E0,1.5513916E0,0E0,4.291912E0,6.9087734E0,1.8864746E0,1.3740688E1,6.813965E0,5.251938E0,1.596521E1,1.1950317E1,1.0738098E1,7.969055E0,1.7925558E1,1.054248E1,6.6533813E0,4.4848623E0,2.0008484E1,6.257202E0,3.587201E1,2.1306732E1,0E0,3.7716122E0,1.2101704E1,1.2741243E1,0E0,0E0,0E0,0E0,0E0,0E0,0E0,0E0,0E0,0E0,0E0,0E0,0E0,0E0,0E0,0E0,0E0,0E0,0E0,0E0,0E0,0E0,0E0,0E0,0E0,0E0,0E0,0E0,0E0,0E0,0E0,0E0,0E0,0E0,0E0,0E0,0E0,0E0,0E0,0E0,0E0,0E0,0E0,0E0,0E0,0E0,0E0,0E0,0E0,0E0,0E0,0E0,0E0,0E0,0E0,0E0,0E0,0E0,0E0,0E0],"parents":[2147483647,0,0,1,1,2,2,3,3,4,4,5,5,6,6,7,7,8,8,9,9,10,10,11,11,12,12,13,13,14,14,15,15,16,16,17,17,18,18,19,19,20,20,21,21,22,22,23,23,24,24,25,25,26,26,27,27,28,28,29,29,30,30,31,31,32,32,33,33,34,34,35,35,36,36,37,37,38,38,39,39,41,41,42,42,43,43,44,44,45,45,46,46,47,47,48,48,49,49,50,50,51,51,52,52,53,53,54,54,55,55,56,56,57,57,58,58,60,60,61,61,62,62],"right_children":[2,4,6,8,10,12,14,16,18,20,22,24,26,28,30,32,34,36,38,40,42,44,46,48,50,52,54,56,58,60,62,64,66,68,70,72,74,76,78,80,-1,82,84,86,88,90,92,94,96,98,100,102,104,106,108,110,112,114,116,-1,118,120,122,-1,-1,-1,-1,-1,-1,-1,-1,-1,-1,-1,-1,-1,-1,-1,-1,-1,-1,-1,-1,-1,-1,-1,-1,-1,-1,-1,-1,-1,-1,-1,-1,-1,-1,-1,-1,-1,-1,-1,-1,-1,-1,-1,-1,-1,-1,-1,-1,-1,-1,-1,-1,-1,-1,-1,-1,-1,-1,-1,-1],"split_conditions":[2E0,3.7037516E-1,3.5235007E0,1.4370416E0,1E0,1.4769419E-1,3.7110248E-1,2.8648655E0,2.803563E0,1E0,3.9849007E-1,9.496009E-2,3.7069276E-1,1.1305654E-1,7.1428573E-1,1.7669739E0,1.8217017E-1,3E0,1E0,1E0,4E0,1E0,1E0,8E0,3E0,1E0,4.5510718E-1,3E0,4E0,1E0,1E0,8.56126E-1,5.7565303E0,7.6442614E-2,1E0,7E0,1E0,1.5345481E-1,1E0,2.3193905E-1,-5.747672E-4,1E0,3.9849007E-1,1E0,1E0,1E0,1.12693E0,6.007191E-1,2.2745928E-1,1E0,1E0,5E0,8.580605E-1,1E0,5.7565303E0,4E0,1E0,4.156725E0,4.76141E-1,-6.500326E-4,2.4163267E-1,1E0,4E0,-7.1200293E-6,7.4062106E-4,-4.1996973E-4,3.8879408E-4,4.614699E-4,8.013792E-4,3.7915714E-4,6.4412784E-4,4.4623046E-4,-8.607342E-4,-1.0947289E-4,-9.24183E-4,5.7806063E-4,4.0012764E-4,9.1229676E-4,3.6259452E-4,9.241827E-4,7.0495676E-4,5.203448E-4,-6.846404E-4,2.7394074E-4,-8.929915E-4,8.61773E-4,8.0863276E-4,7.2058063E-4,-8.395719E-4,7.716494E-4,5.064249E-4,4.496725E-4,7.095706E-4,-6.7834446E-4,-5.422782E-4,-1.4500297E-4,-8.059202E-4,-4.8603571E-4,-6.8361E-4,-4.3030863E-4,-7.9307996E-4,-3.1584193E-4,4.7047413E-4,-3.753951E-4,-4.6568285E-4,-7.1493816E-4,-2.6654938E-4,3.9039203E-4,-4.932979E-4,-5.383473E-4,-5.738696E-5,-8.147902E-4,-2.4955525E-4,-2.3191808E-4,-4.005432E-4,-3.2930932E-4,4.7446567E-5,9.55243E-4,-5.398781E-4,-8.929993E-4,2.6215395E-4,-5.4592972E-5,-7.2254264E-4],"split_indices":[0,3,4,7,23,6,3,4,4,15,6,6,6,6,7,4,3,14,22,29,14,28,20,13,9,23,6,0,9,23,15,7,18,6,23,13,20,3,28,6,0,29,6,15,27,29,7,7,17,26,23,0,7,29,18,14,27,4,5,0,17,26,9,0,0,0,0,0,0,0,0,0,0,0,0,0,0,0,0,0,0,0,0,0,0,0,0,0,0,0,0,0,0,0,0,0,0,0,0,0,0,0,0,0,0,0,0,0,0,0,0,0,0,0,0,0,0,0,0,0,0,0,0],"split_type":[0,0,0,0,0,0,0,0,0,0,0,0,0,0,0,0,0,0,0,0,0,0,0,0,0,0,0,0,0,0,0,0,0,0,0,0,0,0,0,0,0,0,0,0,0,0,0,0,0,0,0,0,0,0,0,0,0,0,0,0,0,0,0,0,0,0,0,0,0,0,0,0,0,0,0,0,0,0,0,0,0,0,0,0,0,0,0,0,0,0,0,0,0,0,0,0,0,0,0,0,0,0,0,0,0,0,0,0,0,0,0,0,0,0,0,0,0,0,0,0,0,0,0],"sum_hessian":[4.7883965E4,1.9156951E4,2.8727014E4,7.609655E3,1.1547297E4,2.0415338E4,8.311676E3,5.851369E3,1.7582856E3,4.7105804E2,1.1076238E4,9.335717E3,1.107962E4,6.6683643E3,1.6433115E3,1.5167559E3,4.3346133E3,3.1444415E2,1.4438414E3,2.367433E2,2.3431474E2,3.7742505E3,7.3019883E3,5.9149785E3,3.4207388E3,1.0058374E4,1.02124646E3,9.232333E2,5.7451313E3,2.6902832E1,1.6164087E3,4.953255E2,1.0214304E3,1.5756616E3,2.758952E3,1.5448114E2,1.5996303E2,1.3900879E3,5.375355E1,2.3538922E2,1.3540897E0,2.1565857E2,1.8656187E1,3.6729336E3,1.01316795E2,6.911027E3,3.909616E2,5.419535E3,4.9544342E2,1.9764165E3,1.4443224E3,3.988526E2,9.659521E3,9.9820715E2,2.3039345E1,6.5207697E2,2.711563E2,5.094775E3,6.503563E2,1.8631903E0,2.503964E1,1.5707552E2,1.4593333E3,4.1951534E1,4.5337396E2,3.4331665E1,9.8709875E2,1.8935698E2,1.3863046E3,1.2182375E2,2.637128E3,1.4822577E2,6.2553716E0,1.474857E2,1.247733E1,2.6195807E2,1.1281298E3,4.813353E1,5.620021E0,5.799003E1,1.7739919E2,2.1348141E2,2.177145E0,1.0222942E1,8.433244E0,1.7046116E3,1.9683221E3,9.613902E1,5.177776E0,6.805133E3,1.0589359E2,1.1973051E2,2.712311E2,1.1041744E3,4.315361E3,2.9581646E1,4.658618E2,3.4560394E2,1.6308125E3,6.736363E1,1.3769587E3,3.682673E2,3.0585304E1,1.5739315E3,8.08559E3,9.62326E2,3.5881184E1,1.509067E1,7.948676E0,5.491415E2,1.0293548E2,2.4871507E2,2.244123E1,2.3338325E3,2.7609424E3,2.333396E2,4.1701672E2,2.385211E1,1.1875317E0,8.686782E0,1.4838873E2,1.4311836E3,2.8149578E1],"tree_param":{"num_deleted":"0","num_feature":"30","num_nodes":"123","size_leaf_vector":"1"}},{"base_weights":[8.28273E-10,6.960758E-1,-4.6144882E-1,5.7077515E-1,7.7869E-1,-5.387675E-1,-2.7210003E-1,6.250303E-1,3.902515E-1,6.024181E-1,7.8613263E-1,-6.27696E-1,-4.6383375E-1,-3.3169594E-1,-3.0378394E-2,4.650878E-1,6.8095183E-1,9.937129E-2,4.5368406E-1,7.548842E-1,4.4589105E-1,8.309019E-1,7.6288486E-1,-7.527322E-1,-6.023495E-1,-4.4189972E-1,-6.8048567E-1,-5.5150914E-1,-2.9638183E-1,7.425229E-1,-4.3614414E-2,6.790937E-1,3.6107358E-1,7.570664E-1,6.303354E-1,3.8768408E-1,-1.7827502E-1,4.372291E-1,8.635573E-1,7.649271E-1,-5.7120825E-4,5.08949E-1,-2.7030042E-1,8.36146E-1,6.3468045E-1,7.700667E-1,6.343292E-1,-6.97398E-1,-8.308872E-1,-5.291796E-1,-6.3111484E-1,-2.5383684E-1,-4.4965112E-1,-6.9823813E-1,7.896211E-2,-1.363742E-1,-5.9741163E-1,-3.227802E-1,-8.943683E-2,-6.4550876E-4,8.659174E-1,1.8982913E-1,-6.885523E-2,-6.4516817E-6,7.4274174E-4,-4.186269E-4,3.8886882E-4,8.367444E-4,6.3631934E-4,6.3429447E-4,-8.647363E-4,4.4607488E-4,-8.597889E-4,-1.0949032E-4,-9.2345674E-4,5.814601E-4,4.032858E-4,9.1322674E-4,3.6511253E-4,9.2560356E-4,7.0745463E-4,5.246233E-4,-6.866599E-4,2.7492826E-4,-8.9152175E-4,8.645018E-4,8.111578E-4,7.2431104E-4,-8.4126386E-4,7.7407504E-4,5.081847E-4,4.521371E-4,7.128322E-4,-6.594611E-4,-8.421077E-4,-8.5765595E-4,-5.54894E-4,-3.1242735E-4,-5.793556E-4,-6.714159E-4,-5.7161914E-4,-3.1501832E-4,4.667628E-4,-3.7462477E-4,-4.642448E-4,-7.141574E-4,-2.654603E-4,3.856096E-4,-4.833946E-4,1.013624E-4,-4.082378E-4,-5.100787E-4,-8.088475E-4,-2.3216594E-4,-3.9931218E-4,-3.285281E-4,4.4788834E-5,9.5438864E-4,-5.360705E-4,-8.9156884E-4,2.5825927E-4,-5.555164E-5,-7.2192185E-4],"categories":[],"categories_nodes":[],"categories_segments":[],"categories_sizes":[],"default_left":[0,0,0,0,0,0,0,0,0,0,0,0,0,0,0,0,0,0,0,0,0,0,0,0,0,0,0,0,0,0,0,0,0,0,0,0,0,0,0,0,0,0,0,0,0,0,0,0,0,0,0,0,0,0,0,0,0,0,0,0,0,0,0,0,0,0,0,0,0,0,0,0,0,0,0,0,0,0,0,0,0,0,0,0,0,0,0,0,0,0,0,0,0,0,0,0,0,0,0,0,0,0,0,0,0,0,0,0,0,0,0,0,0,0,0,0,0,0,0,0,0,0,0],"id":10,"left_children":[1,3,5,7,9,11,13,15,17,19,21,23,25,27,29,31,33,35,37,39,41,43,45,47,49,51,53,55,57,59,61,63,65,67,69,71,73,75,77,79,-1,81,83,85,87,89,91,93,95,97,99,101,103,105,107,109,111,113,115,-1,117,119,121,-1,-1,-1,-1,-1,-1,-1,-1,-1,-1,-1,-1,-1,-1,-1,-1,-1,-1,-1,-1,-1,-1,-1,-1,-1,-1,-1,-1,-1,-1,-1,-1,-1,-1,-1,-1,-1,-1,-1,-1,-1,-1,-1,-1,-1,-1,-1,-1,-1,-1,-1,-1,-1,-1,-1,-1,-1,-1,-1,-1],"loss_changes":[1.5231949E4,1.9525E2,4.173462E2,7.3364746E1,1.4469727E1,1.3463379E2,1.1912903E2,5.1354492E1,3.2049225E1,1.0777863E1,1.0736816E1,2.888208E1,5.1934814E1,5.133667E1,1.677749E1,3.313864E1,1.6005371E1,2.5099352E1,9.251648E0,3.5596771E0,1.0626026E1,3.300293E0,6.163086E0,6.1501465E0,1.5875244E1,1.4440552E1,1.3654541E1,1.7395813E1,3.1210297E1,5.288663E0,9.501015E0,2.1358353E1,2.2080994E1,1.5859375E1,1.5793091E1,1.1580032E1,8.098734E0,6.4953003E0,1.0054588E0,1.4981232E0,0E0,4.366848E0,6.8317995E0,1.8662109E0,1.397847E1,6.7629395E0,5.2100525E0,4.4804688E0,4.251068E0,2.3521729E1,1.2858154E1,1.767341E1,1.0324097E1,6.601837E0,4.314512E0,6.027085E0,1.4831543E1,3.507428E1,2.0820126E1,0E0,3.7101498E0,1.187656E1,1.2591082E1,0E0,0E0,0E0,0E0,0E0,0E0,0E0,0E0,0E0,0E0,0E0,0E0,0E0,0E0,0E0,0E0,0E0,0E0,0E0,0E0,0E0,0E0,0E0,0E0,0E0,0E0,0E0,0E0,0E0,0E0,0E0,0E0,0E0,0E0,0E0,0E0,0E0,0E0,0E0,0E0,0E0,0E0,0E0,0E0,0E0,0E0,0E0,0E0,0E0,0E0,0E0,0E0,0E0,0E0,0E0,0E0,0E0,0E0,0E0,0E0],"parents":[2147483647,0,0,1,1,2,2,3,3,4,4,5,5,6,6,7,7,8,8,9,9,10,10,11,11,12,12,13,13,14,14,15,15,16,16,17,17,18,18,19,19,20,20,21,21,22,22,23,23,24,24,25,25,26,26,27,27,28,28,29,29,30,30,31,31,32,32,33,33,34,34,35,35,36,36,37,37,38,38,39,39,41,41,42,42,43,43,44,44,45,45,46,46,47,47,48,48,49,49,50,50,51,51,52,52,53,53,54,54,55,55,56,56,57,57,58,58,60,60,61,61,62,62],"right_children":[2,4,6,8,10,12,14,16,18,20,22,24,26,28,30,32,34,36,38,40,42,44,46,48,50,52,54,56,58,60,62,64,66,68,70,72,74,76,78,80,-1,82,84,86,88,90,92,94,96,98,100,102,104,106,108,110,112,114,116,-1,118,120,122,-1,-1,-1,-1,-1,-1,-1,-1,-1,-1,-1,-1,-1,-1,-1,-1,-1,-1,-1,-1,-1,-1,-1,-1,-1,-1,-1,-1,-1,-1,-1,-1,-1,-1,-1,-1,-1,-1,-1,-1,-1,-1,-1,-1,-1,-1,-1,-1,-1,-1,-1,-1,-1,-1,-1,-1,-1,-1,-1,-1],"split_conditions":[2E0,3.7037516E-1,3.5235007E0,1.4370416E0,1E0,1.4769419E-1,3.7110248E-1,2.8648655E0,2.803563E0,1E0,3.9849007E-1,4E0,3.7069276E-1,1.1305654E-1,7.1428573E-1,1.7669739E0,1E0,3E0,1E0,1E0,4E0,1E0,1E0,3E0,3E0,1E0,4.5510718E-1,1E0,4E0,1E0,1E0,8.56126E-1,5.7565303E0,1.8217017E-1,4E0,7E0,1E0,1.5345481E-1,1E0,2.3193905E-1,-5.7120825E-4,1E0,3.9849007E-1,1E0,1E0,1E0,1.12693E0,1E0,1E0,9.5033966E-2,1E0,5E0,8.580605E-1,1E0,5.7565303E0,3E0,3E0,4.156725E0,4.76141E-1,-6.4550876E-4,2.4163267E-1,1E0,4E0,-6.4516817E-6,7.4274174E-4,-4.186269E-4,3.8886882E-4,8.367444E-4,6.3631934E-4,6.3429447E-4,-8.647363E-4,4.4607488E-4,-8.597889E-4,-1.0949032E-4,-9.2345674E-4,5.814601E-4,4.032858E-4,9.1322674E-4,3.6511253E-4,9.2560356E-4,7.0745463E-4,5.246233E-4,-6.866599E-4,2.7492826E-4,-8.9152175E-4,8.645018E-4,8.111578E-4,7.2431104E-4,-8.4126386E-4,7.7407504E-4,5.081847E-4,4.521371E-4,7.128322E-4,-6.594611E-4,-8.421077E-4,-8.5765595E-4,-5.54894E-4,-3.1242735E-4,-5.793556E-4,-6.714159E-4,-5.7161914E-4,-3.1501832E-4,4.667628E-4,-3.7462477E-4,-4.642448E-4,-7.141574E-4,-2.654603E-4,3.856096E-4,-4.833946E-4,1.013624E-4,-4.082378E-4,-5.100787E-4,-8.088475E-4,-2.3216594E-4,-3.9931218E-4,-3.285281E-4,4.4788834E-5,9.5438864E-4,-5.360705E-4,-8.9156884E-4,2.5825927E-4,-5.555164E-5,-7.2192185E-4],"split_indices":[0,3,4,7,23,6,3,4,4,15,6,8,6,6,7,4,10,14,22,29,14,28,20,9,0,23,6,23,9,23,15,7,18,3,11,13,20,3,28,6,0,29,6,15,27,29,7,15,20,3,19,0,7,29,18,13,0,4,5,0,17,26,9,0,0,0,0,0,0,0,0,0,0,0,0,0,0,0,0,0,0,0,0,0,0,0,0,0,0,0,0,0,0,0,0,0,0,0,0,0,0,0,0,0,0,0,0,0,0,0,0,0,0,0,0,0,0,0,0,0,0,0,0],"split_type":[0,0,0,0,0,0,0,0,0,0,0,0,0,0,0,0,0,0,0,0,0,0,0,0,0,0,0,0,0,0,0,0,0,0,0,0,0,0,0,0,0,0,0,0,0,0,0,0,0,0,0,0,0,0,0,0,0,0,0,0,0,0,0,0,0,0,0,0,0,0,0,0,0,0,0,0,0,0,0,0,0,0,0,0,0,0,0,0,0,0,0,0,0,0,0,0,0,0,0,0,0,0,0,0,0,0,0,0,0,0,0,0,0,0,0,0,0,0,0,0,0,0,0],"sum_hessian":[4.7419516E4,1.8903654E4,2.8515861E4,7.514437E3,1.1389217E4,2.0246545E4,8.269316E3,5.7760283E3,1.7384086E3,4.647208E2,1.0924496E4,9.255314E3,1.09912295E4,6.633476E3,1.6358408E3,1.498746E3,4.277282E3,3.1168652E2,1.4267219E3,2.3347777E2,2.3124303E2,3.7220425E3,7.2024536E3,1.5551139E3,7.7002007E3,9.983528E3,1.00770105E3,9.1616693E2,5.717309E3,2.6614607E1,1.6092262E3,4.883836E2,1.01036237E3,1.7027745E3,2.5745078E3,1.527117E2,1.5897484E2,1.3736418E3,5.3080105E1,2.3214285E2,1.3349195E0,2.1279648E2,1.844655E1,3.621983E3,1.0005951E2,6.816647E3,3.8580634E2,9.162952E2,6.3881866E2,2.17841E3,5.521791E3,3.9653757E2,9.586991E3,9.847623E2,2.2938671E1,9.161221E1,8.2455475E2,5.070008E3,6.4730145E2,1.8274016E0,2.4787205E1,1.5638206E2,1.4528441E3,4.1567135E1,4.4681647E2,3.429421E1,9.760682E2,1.0222732E3,6.8050134E2,2.5682825E3,6.2253E0,1.46497E2,6.2147026E0,1.4659058E2,1.2384252E1,2.5861444E2,1.1150275E3,4.7513306E1,5.566799E0,5.717974E1,1.749631E2,2.1059679E2,2.1996877E0,1.0121037E1,8.325514E0,1.6809272E3,1.9410558E3,9.481112E1,5.248396E0,6.7119585E3,1.0468863E2,1.1821308E2,2.6759326E2,7.30377E2,1.8591821E2,5.804164E2,5.8402283E1,4.1084607E2,1.7675637E3,3.2857876E3,2.2360034E3,3.660237E2,3.0513876E1,1.5654827E3,8.0215083E3,9.491969E2,3.5565426E1,1.5047641E1,7.8910313E0,4.9208233E1,4.240398E1,5.859444E2,2.386103E2,2.3232727E3,2.7467349E3,2.3221599E2,4.1508545E2,2.3616186E1,1.1710185E0,8.590942E0,1.4779112E2,1.4249026E3,2.794156E1],"tree_param":{"num_deleted":"0","num_feature":"30","num_nodes":"123","size_leaf_vector":"1"}},{"base_weights":[-1.4495005E-10,6.9786793E-1,-4.6007982E-1,5.7200307E-1,7.8094566E-1,-5.3722847E-1,-2.7169886E-1,6.166958E-1,3.504197E-1,6.046474E-1,7.883929E-1,-6.259701E-1,-4.625081E-1,-3.3100018E-1,-3.132979E-2,6.63958E-1,4.5661235E-1,2.327462E-1,7.143067E-1,7.564033E-1,4.4893208E-1,8.3335286E-1,7.650506E-1,-7.5126046E-1,-6.006509E-1,-4.4066095E-1,-6.7951554E-1,-5.495637E-1,-2.959591E-1,7.4325687E-1,-4.4521194E-2,5.0599086E-1,6.922954E-1,4.4023582E-1,8.644823E-1,-4.0455952E-1,2.6357964E-1,-3.1147283E-2,7.3285145E-1,7.665106E-1,-5.693348E-4,5.1168954E-1,-2.66299E-1,8.3864915E-1,6.35455E-1,7.2794914E-1,7.904831E-1,-6.959425E-1,-8.295987E-1,-5.280676E-1,-6.291339E-1,-2.5358135E-1,-4.4838178E-1,-6.9739467E-1,7.8667775E-2,-4.60275E-1,-7.646204E-1,-3.22219E-1,-8.999349E-2,-6.410401E-4,8.654891E-1,1.8685648E-1,-6.953993E-2,7.454062E-4,4.193094E-4,8.0548966E-4,6.353189E-4,5.8464863E-4,4.062777E-4,9.1400405E-4,3.67521E-4,4.4374113E-4,-7.578031E-4,3.4065015E-4,1.10012385E-4,-7.924688E-4,7.759673E-4,6.8541925E-4,8.7391003E-4,9.253696E-4,7.094908E-4,5.271301E-4,-6.803496E-4,2.841289E-4,-8.9013553E-4,8.668986E-4,8.137413E-4,7.274801E-4,-8.4285834E-4,7.3738233E-4,1.280333E-4,7.096599E-4,8.094401E-4,-6.581659E-4,-8.4072654E-4,-8.564763E-4,-5.5438833E-4,-3.1112827E-4,-5.7844166E-4,-6.693713E-4,-5.6986435E-4,-3.146956E-4,4.6330687E-4,-5.0488935E-4,-4.2908094E-4,-7.133933E-4,-2.6440067E-4,3.8120564E-4,-4.7760882E-4,-5.3527363E-4,-6.091035E-5,-8.1084244E-4,-2.453073E-4,-2.3223012E-4,-3.982442E-4,-3.2709527E-4,4.3089647E-5,9.5355365E-4,-5.324844E-4,-8.9037797E-4,2.5478363E-4,-5.6291017E-5,-7.2136184E-4],"categories":[],"categories_nodes":[],"categories_segments":[],"categories_sizes":[],"default_left":[0,0,0,0,0,0,0,0,0,0,0,0,0,0,0,0,0,0,0,0,0,0,0,0,0,0,0,0,0,0,0,0,0,0,0,0,0,0,0,0,0,0,0,0,0,0,0,0,0,0,0,0,0,0,0,0,0,0,0,0,0,0,0,0,0,0,0,0,0,0,0,0,0,0,0,0,0,0,0,0,0,0,0,0,0,0,0,0,0,0,0,0,0,0,0,0,0,0,0,0,0,0,0,0,0,0,0,0,0,0,0,0,0,0,0,0,0,0,0,0,0,0,0],"id":11,"left_children":[1,3,5,7,9,11,13,15,17,19,21,23,25,27,29,31,33,35,37,39,41,43,45,47,49,51,53,55,57,59,61,63,65,67,69,71,73,75,77,79,-1,81,83,85,87,89,91,93,95,97,99,101,103,105,107,109,111,113,115,-1,117,119,121,-1,-1,-1,-1,-1,-1,-1,-1,-1,-1,-1,-1,-1,-1,-1,-1,-1,-1,-1,-1,-1,-1,-1,-1,-1,-1,-1,-1,-1,-1,-1,-1,-1,-1,-1,-1,-1,-1,-1,-1,-1,-1,-1,-1,-1,-1,-1,-1,-1,-1,-1,-1,-1,-1,-1,-1,-1,-1,-1,-1],"loss_changes":[1.5084593E4,1.9474512E2,4.1136035E2,7.332349E1,1.4283691E1,1.3290332E2,1.17284E2,4.6440186E1,5.3302994E1,1.0528961E1,1.0678223E1,2.8667236E1,5.1418945E1,5.038678E1,1.668292E1,2.09917E1,9.047211E0,1.867725E1,4.234329E0,3.5379791E0,1.0436054E1,3.317627E0,6.133301E0,6.0925293E0,1.5465088E1,1.4206055E1,1.3555511E1,1.7137482E1,3.0748657E1,5.18128E0,9.293192E0,1.4814178E1,2.5542969E1,6.427002E0,9.794235E-1,1.3523279E1,1.0638706E1,5.7482457E0,1.3901062E0,1.4281158E0,0E0,4.2477036E0,6.834697E0,1.8103027E0,1.4202099E1,1.6341675E1,5.871338E0,4.414673E0,4.1986694E0,2.3420898E1,1.2692871E1,1.7461758E1,1.0165894E1,6.552307E0,4.1947865E0,1.9319443E1,6.1788483E0,3.443341E1,2.036222E1,0E0,3.653183E0,1.1693323E1,1.2459332E1,0E0,0E0,0E0,0E0,0E0,0E0,0E0,0E0,0E0,0E0,0E0,0E0,0E0,0E0,0E0,0E0,0E0,0E0,0E0,0E0,0E0,0E0,0E0,0E0,0E0,0E0,0E0,0E0,0E0,0E0,0E0,0E0,0E0,0E0,0E0,0E0,0E0,0E0,0E0,0E0,0E0,0E0,0E0,0E0,0E0,0E0,0E0,0E0,0E0,0E0,0E0,0E0,0E0,0E0,0E0,0E0,0E0,0E0,0E0,0E0],"parents":[2147483647,0,0,1,1,2,2,3,3,4,4,5,5,6,6,7,7,8,8,9,9,10,10,11,11,12,12,13,13,14,14,15,15,16,16,17,17,18,18,19,19,20,20,21,21,22,22,23,23,24,24,25,25,26,26,27,27,28,28,29,29,30,30,31,31,32,32,33,33,34,34,35,35,36,36,37,37,38,38,39,39,41,41,42,42,43,43,44,44,45,45,46,46,47,47,48,48,49,49,50,50,51,51,52,52,53,53,54,54,55,55,56,56,57,57,58,58,60,60,61,61,62,62],"right_children":[2,4,6,8,10,12,14,16,18,20,22,24,26,28,30,32,34,36,38,40,42,44,46,48,50,52,54,56,58,60,62,64,66,68,70,72,74,76,78,80,-1,82,84,86,88,90,92,94,96,98,100,102,104,106,108,110,112,114,116,-1,118,120,122,-1,-1,-1,-1,-1,-1,-1,-1,-1,-1,-1,-1,-1,-1,-1,-1,-1,-1,-1,-1,-1,-1,-1,-1,-1,-1,-1,-1,-1,-1,-1,-1,-1,-1,-1,-1,-1,-1,-1,-1,-1,-1,-1,-1,-1,-1,-1,-1,-1,-1,-1,-1,-1,-1,-1,-1,-1,-1,-1,-1],"split_conditions":[2E0,3.7037516E-1,3.5235007E0,6.0345584E-1,1E0,1.4769419E-1,3.7110248E-1,1.3077304E0,6.619446E-1,1E0,3.9849007E-1,4E0,3.7069276E-1,1.1305654E-1,7.1428573E-1,9.546376E-2,1E0,5.7565303E0,2.2745928E-1,1E0,4E0,1E0,4E0,3E0,3E0,1E0,4.5510718E-1,3E0,4E0,1E0,1E0,2E0,1.8217017E-1,1.5345481E-1,1E0,2E0,1.2736217E0,7E0,1E0,2.3193905E-1,-5.693348E-4,1E0,3.9849007E-1,1E0,1E0,1E0,2E0,1E0,1E0,9.5033966E-2,1E0,5E0,2E0,1E0,5.7565303E0,4E0,1E0,4.156725E0,4.76141E-1,-6.410401E-4,2.4163267E-1,1E0,4E0,7.454062E-4,4.193094E-4,8.0548966E-4,6.353189E-4,5.8464863E-4,4.062777E-4,9.1400405E-4,3.67521E-4,4.4374113E-4,-7.578031E-4,3.4065015E-4,1.10012385E-4,-7.924688E-4,7.759673E-4,6.8541925E-4,8.7391003E-4,9.253696E-4,7.094908E-4,5.271301E-4,-6.803496E-4,2.841289E-4,-8.9013553E-4,8.668986E-4,8.137413E-4,7.274801E-4,-8.4285834E-4,7.3738233E-4,1.280333E-4,7.096599E-4,8.094401E-4,-6.581659E-4,-8.4072654E-4,-8.564763E-4,-5.5438833E-4,-3.1112827E-4,-5.7844166E-4,-6.693713E-4,-5.6986435E-4,-3.146956E-4,4.6330687E-4,-5.0488935E-4,-4.2908094E-4,-7.133933E-4,-2.6440067E-4,3.8120564E-4,-4.7760882E-4,-5.3527363E-4,-6.091035E-5,-8.1084244E-4,-2.453073E-4,-2.3223012E-4,-3.982442E-4,-3.2709527E-4,4.3089647E-5,9.5355365E-4,-5.324844E-4,-8.9037797E-4,2.5478363E-4,-5.6291017E-5,-7.2136184E-4],"split_indices":[0,3,4,5,23,6,3,7,5,15,6,8,6,6,7,6,22,18,17,29,14,28,8,9,0,23,6,0,9,23,15,9,3,3,28,13,7,13,10,6,0,29,6,15,27,29,13,15,20,3,19,0,13,29,18,14,27,4,5,0,17,26,9,0,0,0,0,0,0,0,0,0,0,0,0,0,0,0,0,0,0,0,0,0,0,0,0,0,0,0,0,0,0,0,0,0,0,0,0,0,0,0,0,0,0,0,0,0,0,0,0,0,0,0,0,0,0,0,0,0,0,0,0],"split_type":[0,0,0,0,0,0,0,0,0,0,0,0,0,0,0,0,0,0,0,0,0,0,0,0,0,0,0,0,0,0,0,0,0,0,0,0,0,0,0,0,0,0,0,0,0,0,0,0,0,0,0,0,0,0,0,0,0,0,0,0,0,0,0,0,0,0,0,0,0,0,0,0,0,0,0,0,0,0,0,0,0,0,0,0,0,0,0,0,0,0,0,0,0,0,0,0,0,0,0,0,0,0,0,0,0,0,0,0,0,0,0,0,0,0,0,0,0,0,0,0,0,0,0],"sum_hessian":[4.697953E4,1.8665865E4,2.8313666E4,7.4248755E3,1.1240989E4,2.008592E4,8.227748E3,6.1771743E3,1.2477014E3,4.5893253E2,1.0782057E4,9.178135E3,1.0907784E4,6.5992686E3,1.6284789E3,4.766725E3,1.4104492E3,9.4405365E2,3.036477E2,2.3046748E2,2.2846504E2,3.6729116E3,7.1091455E3,1.5381318E3,7.6400034E3,9.912843E3,9.949417E2,9.098059E2,5.689463E3,2.6342266E1,1.6021366E3,7.2789825E2,4.0388267E3,1.3580029E3,5.2446274E1,4.3007057E1,9.010466E2,7.3540053E0,2.962937E2,2.2914235E2,1.3251345E0,2.1029723E2,1.8167807E1,3.5740237E3,9.88879E1,2.903329E3,4.2058164E3,9.0731903E2,6.308128E2,2.1586487E3,5.4813545E3,3.9423276E2,9.518609E3,9.720983E2,2.2843407E1,6.4510657E2,2.6469937E2,5.045601E3,6.438617E2,1.7929069E0,2.454936E1,1.5570259E2,1.446434E3,1.9146634E2,5.3643195E2,1.3478792E3,2.6909475E3,2.5544856E2,1.1025543E3,4.6930504E1,5.5157676E0,1.2568383E1,3.0438673E1,5.991394E2,3.0190717E2,3.7936969E0,3.5603085E0,2.2611842E2,7.0175285E1,5.6500748E1,1.726416E2,2.0815874E2,2.1384945E0,9.941072E0,8.226733E0,1.6588362E3,1.9151875E3,9.3571E1,5.316899E0,2.8581577E3,4.517126E1,8.0635455E2,3.3994617E3,7.2396875E2,1.8335025E2,5.727637E2,5.8049156E1,4.081403E2,1.7505084E3,3.25874E3,2.2226147E3,3.6378165E2,3.0451101E1,2.4170369E3,7.1015728E3,9.368358E2,3.5262524E1,1.5000124E1,7.8432827E0,5.428263E2,1.0228025E2,2.4254962E2,2.2149742E1,2.31246E3,2.7331414E3,2.3094707E2,4.129146E2,2.3393597E1,1.1557629E0,8.517559E0,1.4718503E2,1.4186842E3,2.774977E1],"tree_param":{"num_deleted":"0","num_feature":"30","num_nodes":"123","size_leaf_vector":"1"}},{"base_weights":[9.962584E-10,6.9953233E-1,-4.587362E-1,5.7314605E-1,7.8303415E-1,-5.3571415E-1,-2.7123216E-1,6.1837333E-1,3.4949383E-1,6.074282E-1,7.9044926E-1,-6.2429124E-1,-4.6121633E-1,-3.302273E-1,-3.222373E-2,6.652863E-1,4.5963445E-1,2.3213978E-1,7.1315676E-1,7.580892E-1,4.527518E-1,8.3550537E-1,7.6705873E-1,-5.8141124E-1,-6.9847643E-1,-4.394659E-1,-6.784503E-1,-5.476967E-1,-2.954358E-1,7.450139E-1,-4.537378E-2,5.0654715E-1,6.937727E-1,4.433368E-1,8.654196E-1,-4.0444988E-1,2.631133E-1,-6.91005E-2,7.337054E-1,7.68258E-1,-5.6744245E-4,5.1566344E-1,-2.6353002E-1,8.408559E-1,6.3586444E-1,7.292888E-1,7.929501E-1,-5.6495655E-1,-7.6076E-1,-6.446502E-1,-7.720432E-1,-2.532876E-1,-4.471548E-1,-6.9655514E-1,8.125098E-2,-5.8220154E-1,-3.2069985E-4,-3.2157162E-1,-9.0288766E-2,-6.3390384E-4,8.648366E-1,1.8394662E-1,-7.0183635E-2,7.4529316E-4,4.2037584E-4,8.073482E-4,6.366682E-4,5.877563E-4,4.0939855E-4,9.14723E-4,3.7019586E-4,4.3717225E-4,-7.5756677E-4,3.405221E-4,1.0932373E-4,-8.044294E-4,7.740265E-4,6.86513E-4,8.741451E-4,9.264176E-4,7.1137695E-4,5.309036E-4,-6.7400496E-4,2.8591277E-4,-8.8851986E-4,8.6898357E-4,8.160403E-4,7.305693E-4,-8.448344E-4,7.3880126E-4,1.2843027E-4,7.1242335E-4,8.118297E-4,-6.726801E-4,-5.3734623E-4,-1.4605535E-4,-8.0034626E-4,-4.8275854E-4,-6.784798E-4,-4.2468865E-4,-7.88835E-4,-3.1432675E-4,4.5998822E-4,-3.7234285E-4,-4.617511E-4,-7.126705E-4,-2.6376545E-4,3.793749E-4,-4.7106875E-4,-6.398649E-4,-2.5711211E-4,1.2888218E-4,-8.592248E-4,-2.3217553E-4,-3.9711854E-4,-3.2575286E-4,4.190651E-5,9.5264695E-4,-5.292374E-4,-8.892066E-4,2.5137517E-4,-5.6995304E-5,-7.206596E-4],"categories":[],"categories_nodes":[],"categories_segments":[],"categories_sizes":[],"default_left":[0,0,0,0,0,0,0,0,0,0,0,0,0,0,0,0,0,0,0,0,0,0,0,0,0,0,0,0,0,0,0,0,0,0,0,0,0,0,0,0,0,0,0,0,0,0,0,0,0,0,0,0,0,0,0,0,0,0,0,0,0,0,0,0,0,0,0,0,0,0,0,0,0,0,0,0,0,0,0,0,0,0,0,0,0,0,0,0,0,0,0,0,0,0,0,0,0,0,0,0,0,0,0,0,0,0,0,0,0,0,0,0,0,0,0,0,0,0,0,0,0,0,0],"id":12,"left_children":[1,3,5,7,9,11,13,15,17,19,21,23,25,27,29,31,33,35,37,39,41,43,45,47,49,51,53,55,57,59,61,63,65,67,69,71,73,75,77,79,-1,81,83,85,87,89,91,93,95,97,99,101,103,105,107,109,111,113,115,-1,117,119,121,-1,-1,-1,-1,-1,-1,-1,-1,-1,-1,-1,-1,-1,-1,-1,-1,-1,-1,-1,-1,-1,-1,-1,-1,-1,-1,-1,-1,-1,-1,-1,-1,-1,-1,-1,-1,-1,-1,-1,-1,-1,-1,-1,-1,-1,-1,-1,-1,-1,-1,-1,-1,-1,-1,-1,-1,-1,-1,-1,-1],"loss_changes":[1.4942854E4,1.9418164E2,4.0577246E2,7.4038086E1,1.3977539E1,1.31271E2,1.15432434E2,4.5155518E1,5.2629517E1,1.0239929E1,1.0581543E1,2.8557129E1,5.0885986E1,4.9519714E1,1.6611017E1,2.0946533E1,8.847504E0,1.857666E1,4.894348E0,3.5169067E0,1.0345543E1,3.3408203E0,6.2890625E0,1.6615479E1,1.2688843E1,1.398645E1,1.3591888E1,1.7082275E1,3.0333618E1,5.0162716E0,9.092526E0,1.4505844E1,2.5367798E1,6.3467712E0,9.5168304E-1,1.3365166E1,1.0604244E1,5.9709945E0,1.3464355E0,1.385437E0,0E0,4.140106E0,6.762994E0,1.7548828E0,1.4471756E1,1.6300293E1,5.7385254E0,1.5385254E1,1.1624054E1,1.023761E1,7.842224E0,1.7252867E1,1.0156006E1,6.516449E0,4.0979E0,1.5784668E1,6.1735573E0,3.3828247E1,1.9976128E1,0E0,3.6016293E0,1.1517405E1,1.2319147E1,0E0,0E0,0E0,0E0,0E0,0E0,0E0,0E0,0E0,0E0,0E0,0E0,0E0,0E0,0E0,0E0,0E0,0E0,0E0,0E0,0E0,0E0,0E0,0E0,0E0,0E0,0E0,0E0,0E0,0E0,0E0,0E0,0E0,0E0,0E0,0E0,0E0,0E0,0E0,0E0,0E0,0E0,0E0,0E0,0E0,0E0,0E0,0E0,0E0,0E0,0E0,0E0,0E0,0E0,0E0,0E0,0E0,0E0,0E0,0E0],"parents":[2147483647,0,0,1,1,2,2,3,3,4,4,5,5,6,6,7,7,8,8,9,9,10,10,11,11,12,12,13,13,14,14,15,15,16,16,17,17,18,18,19,19,20,20,21,21,22,22,23,23,24,24,25,25,26,26,27,27,28,28,29,29,30,30,31,31,32,32,33,33,34,34,35,35,36,36,37,37,38,38,39,39,41,41,42,42,43,43,44,44,45,45,46,46,47,47,48,48,49,49,50,50,51,51,52,52,53,53,54,54,55,55,56,56,57,57,58,58,60,60,61,61,62,62],"right_children":[2,4,6,8,10,12,14,16,18,20,22,24,26,28,30,32,34,36,38,40,42,44,46,48,50,52,54,56,58,60,62,64,66,68,70,72,74,76,78,80,-1,82,84,86,88,90,92,94,96,98,100,102,104,106,108,110,112,114,116,-1,118,120,122,-1,-1,-1,-1,-1,-1,-1,-1,-1,-1,-1,-1,-1,-1,-1,-1,-1,-1,-1,-1,-1,-1,-1,-1,-1,-1,-1,-1,-1,-1,-1,-1,-1,-1,-1,-1,-1,-1,-1,-1,-1,-1,-1,-1,-1,-1,-1,-1,-1,-1,-1,-1,-1,-1,-1,-1,-1,-1,-1,-1],"split_conditions":[2E0,3.7037516E-1,3.5235007E0,6.0345584E-1,1E0,1.4769419E-1,3.7110248E-1,1.3077304E0,6.619446E-1,1E0,3.9849007E-1,9.496009E-2,3.7069276E-1,1.1305654E-1,7.1428573E-1,9.546376E-2,1E0,5.7565303E0,2.2745928E-1,1E0,4E0,1E0,4E0,8E0,3E0,1E0,4.5510718E-1,1E0,4E0,1E0,1E0,2E0,1.8217017E-1,1.5345481E-1,1E0,2E0,1.2736217E0,7E0,1E0,2.3193905E-1,-5.6744245E-4,1E0,3.9849007E-1,1E0,1E0,1E0,2E0,6.007191E-1,2.2745928E-1,1E0,1E0,5E0,8.580605E-1,1E0,5.7565303E0,4E0,8E0,4.156725E0,4.76141E-1,-6.3390384E-4,2.4163267E-1,1E0,4E0,7.4529316E-4,4.2037584E-4,8.073482E-4,6.366682E-4,5.877563E-4,4.0939855E-4,9.14723E-4,3.7019586E-4,4.3717225E-4,-7.5756677E-4,3.405221E-4,1.0932373E-4,-8.044294E-4,7.740265E-4,6.86513E-4,8.741451E-4,9.264176E-4,7.1137695E-4,5.309036E-4,-6.7400496E-4,2.8591277E-4,-8.8851986E-4,8.6898357E-4,8.160403E-4,7.305693E-4,-8.448344E-4,7.3880126E-4,1.2843027E-4,7.1242335E-4,8.118297E-4,-6.726801E-4,-5.3734623E-4,-1.4605535E-4,-8.0034626E-4,-4.8275854E-4,-6.784798E-4,-4.2468865E-4,-7.88835E-4,-3.1432675E-4,4.5998822E-4,-3.7234285E-4,-4.617511E-4,-7.126705E-4,-2.6376545E-4,3.793749E-4,-4.7106875E-4,-6.398649E-4,-2.5711211E-4,1.2888218E-4,-8.592248E-4,-2.3217553E-4,-3.9711854E-4,-3.2575286E-4,4.190651E-5,9.5264695E-4,-5.292374E-4,-8.892066E-4,2.5137517E-4,-5.6995304E-5,-7.206596E-4],"split_indices":[0,3,4,5,23,6,3,7,5,15,6,6,6,6,7,6,22,18,17,29,14,28,8,13,9,23,6,24,9,23,15,9,3,3,28,13,7,13,10,6,0,29,6,15,27,29,13,7,17,26,23,0,7,29,18,14,13,4,5,0,17,26,9,0,0,0,0,0,0,0,0,0,0,0,0,0,0,0,0,0,0,0,0,0,0,0,0,0,0,0,0,0,0,0,0,0,0,0,0,0,0,0,0,0,0,0,0,0,0,0,0,0,0,0,0,0,0,0,0,0,0,0,0],"split_type":[0,0,0,0,0,0,0,0,0,0,0,0,0,0,0,0,0,0,0,0,0,0,0,0,0,0,0,0,0,0,0,0,0,0,0,0,0,0,0,0,0,0,0,0,0,0,0,0,0,0,0,0,0,0,0,0,0,0,0,0,0,0,0,0,0,0,0,0,0,0,0,0,0,0,0,0,0,0,0,0,0,0,0,0,0,0,0,0,0,0,0,0,0,0,0,0,0,0,0,0,0,0,0,0,0,0,0,0,0,0,0,0,0,0,0,0,0,0,0,0,0,0,0],"sum_hessian":[4.6563332E4,1.844136E4,2.8121975E4,7.3398315E3,1.1101528E4,1.9935709E4,8.186265E3,6.103756E3,1.2360754E3,4.5314E2,1.0648388E4,9.103897E3,1.0831812E4,6.565342E3,1.6209236E3,4.7089146E3,1.3948416E3,9.3574786E2,3.0032755E2,2.275734E2,2.255666E2,3.627048E3,7.0213403E3,5.7748164E3,3.3290815E3,9.848735E3,9.830757E2,9.034502E2,5.6618916E3,2.6042103E1,1.5948815E3,7.193192E2,3.9895952E3,1.3429951E3,5.1846478E1,4.2857243E1,8.928906E2,7.6267033E0,2.9270084E2,2.2625807E2,1.3153262E0,2.0761195E2,1.7954653E1,3.5292488E3,9.779925E1,2.8674736E3,4.1538667E3,5.293321E3,4.814955E2,1.9281119E3,1.4009695E3,3.9195282E2,9.456783E3,9.602739E2,2.2801748E1,8.4981683E2,5.3633343E1,5.0215728E3,6.403185E2,1.7390293E0,2.4303074E1,1.5507654E2,1.4398049E3,1.8874208E2,5.3057715E2,1.3304061E3,2.659189E3,2.5244296E2,1.0905521E3,4.6381733E1,5.4647427E0,1.2596527E1,3.0260717E1,5.9312933E2,2.9976126E2,4.0982943E0,3.5284088E0,2.234893E2,6.921154E1,5.580466E1,1.7045341E2,2.0553275E2,2.079216E0,9.843521E0,8.111132E0,1.6382916E3,1.8909572E3,9.239623E1,5.4030147E0,2.8225588E3,4.4914665E1,7.962739E2,3.3575928E3,1.0751604E3,4.2181606E3,2.9415369E1,4.5208014E2,3.3590472E2,1.5922073E3,6.581463E1,1.3351548E3,3.6157047E2,3.0382355E1,1.5481874E3,7.908595E3,9.2517755E2,3.5096413E1,1.501193E1,7.789818E0,7.209658E2,1.2885098E2,4.7359165E1,6.2741785E0,2.3018376E3,2.7197354E3,2.2970589E2,4.1061258E2,2.3160856E1,1.1422173E0,8.447275E0,1.4662926E2,1.4122592E3,2.7545778E1],"tree_param":{"num_deleted":"0","num_feature":"30","num_nodes":"123","size_leaf_vector":"1"}},{"base_weights":[9.49242E-10,7.0106053E-1,-4.5742118E-1,5.7415617E-1,7.849776E-1,-5.342512E-1,-2.7073157E-1,6.1983883E-1,3.488204E-1,6.0930747E-1,7.923997E-1,-6.227027E-1,-4.599058E-1,-3.2945347E-1,-3.289285E-2,6.6645837E-1,4.6225724E-1,2.3163074E-1,7.128733E-1,7.598112E-1,4.549264E-1,8.376027E-1,7.6893634E-1,-7.486748E-1,-5.9737605E-1,-4.38237E-1,-6.7738E-1,-5.459546E-1,-2.948555E-1,7.4690974E-1,-4.6006814E-2,